D009369 0.28407922 0.13705778 -0.032334805 -0.37645665 0.070052095 0.13093065 0.21084346 0.48285154 -0.028566306 0.56348026 0.5490859 -0.14550649 -0.16765077 0.21159217 -0.27630565 -0.43392152 -0.1945331 -0.38869843 -0.07338281 0.33873132 -0.59645915 -0.017742887 0.18681923 0.45320788 0.15791403 0.3545725 -0.093760505 0.010261653 -0.29362738 -0.103787154 0.51366675 0.010575507 0.16321893 0.49558643 0.0011670232 -0.330292 -0.10440587 -0.82972234 0.44542986 0.55472267 0.122980915 0.07499018 0.053087715 0.3826687 0.23919173 0.26642448 0.3985714 0.15437543 0.1689221 0.2896555
D002277 0.45119363 -0.0513557 0.19743712 -0.99509704 -0.18868446 -0.1356913 0.30628538 0.7454044 0.2153699 1.009312 0.6876481 -0.120778635 -0.45216793 0.14327897 -0.25523752 -0.39401904 -0.09845796 0.3241626 0.31584796 0.1940472 -0.42054808 -0.30450952 0.019075824 0.44698235 0.12172719 -0.2589046 0.08764598 -0.33149016 0.1261692 -0.16898361 0.8267751 0.30556852 0.535507 0.6549298 0.08148638 -0.27019495 -0.23458168 -1.2437036 -0.007663132 0.5322129 -0.29136652 0.04396183 0.1412755 0.30242413 0.12037899 0.17891866 0.39089754 0.2932132 0.078786425 0.10325478
D003920 -0.3727708 0.2671991 -0.1275555 -0.26948774 0.51446897 0.33433208 0.9709804 0.27705514 -0.10680577 0.37036747 0.28733146 -0.19838168 0.27284276 0.28996274 -0.366144 -0.74160343 -0.2653147 0.19364227 0.4694241 -0.33430043 -0.0010745159 0.057003945 -0.065988906 -0.5807615 -0.12930526 -0.004820905 0.5189694 0.16564119 0.13327998 0.14917573 0.7715062 0.4159491 0.09171456 -0.4827378 -0.097196914 -0.14389142 0.5514141 -0.48521954 0.09843855 0.004220362 -0.48066217 0.38283932 0.101947434 -0.60620046 -0.30662936 -0.055244107 -0.19170049 0.10511746 -0.067119464 -0.13067827
D010146 0.16306072 0.2010786 -0.24112505 -0.22234544 0.041148342 -0.03307345 0.20406537 0.30744907 0.010576962 0.27365983 -0.152957 0.09059737 0.01591789 0.2723029 0.035493087 -0.44379538 -0.11089332 -0.11130008 0.33466217 -0.20745704 -0.13754024 0.25220475 0.10170828 0.013096679 0.43245217 -0.19861521 -0.17898747 0.25457725 -0.02014387 -0.044936568 0.103572 0.3253855 0.046447948 0.31916687 0.14659178 -0.3592625 0.09230873 -0.4403631 0.353139 0.2600678 -0.16364446 0.31257817 -0.13931888 -0.43944186 0.26865086 0.08085067 -0.28868052 -0.21108508 -0.052192997 0.26782197
D012008 0.49244258 -0.12171425 -0.08727715 -0.28301555 -0.341281 0.43016407 0.21995986 0.19450234 0.18678653 0.35638785 0.05615132 -0.22609414 -0.40693137 0.0093418835 -0.39733186 -0.18366963 0.050816696 -0.003957644 0.260161 -0.064051606 -0.07043428 0.09292971 0.16982415 0.48117575 0.029227365 0.018953575 -0.42279002 0.108815655 -0.20512606 0.30615634 0.178261 0.65797496 -0.06633507 0.26499102 0.39914596 -0.7483391 0.10266972 -0.6441446 0.73844546 0.35422567 0.039073437 0.3458027 -0.045302063 0.1444212 0.22124712 0.19623177 0.23323148 -0.25921258 0.49839792 -0.38893163
D001943 0.09712056 0.36296716 -0.15990268 -0.5943505 0.009864865 -0.44488806 0.776884 -0.22271842 -0.17447732 0.158535 0.5628827 0.17674185 0.47364962 0.33153254 0.45422247 -0.49718034 -0.35066852 0.27037355 0.43638557 -0.33065385 -0.24048099 -0.26313472 0.47528616 0.40031606 0.22293253 -0.06506555 0.2560944 0.14167078 -0.37149602 -0.019191874 1.0283723 0.8798997 0.40986958 0.82695204 1.28545 -0.3834954 0.22087577 -0.86447704 -0.04761301 0.1820895 -0.22352761 -0.2634627 0.25092405 0.6819728 -0.0036217372 0.2998328 0.28409588 0.25102174 0.16739532 0.23876348
D007239 0.31015736 -0.24822979 -0.109932445 -0.28706986 -0.06347079 -0.55523986 -0.3530682 0.19554187 -0.058799665 0.3560375 -0.7246818 0.08327456 0.13549706 0.25414166 -0.5228717 -0.8006558 -0.09880197 0.2767199 0.5658172 -0.05504936 -0.0060548536 0.13000403 0.6570767 0.3167599 -0.45985115 -0.00090728776 0.05426354 0.21935086 0.15534648 0.19228783 0.4051648 -0.10623744 0.25413218 -0.12030231 -0.03086014 -0.53433603 0.53195983 -0.5215705 0.69106 -0.12509872 -0.19587809 0.2608594 -0.1987566 -0.2810053 -0.13019137 0.06703664 -0.16048557 -0.23285978 0.3320789 0.003418625
D015179 -0.3425453 0.3742032 -0.050354123 -0.33067712 0.5168197 -0.31161878 0.16503657 0.6809319 0.36381048 -0.28834495 0.034066927 -0.13600628 -0.17230846 0.5654887 0.06578596 -0.6314743 -0.011226408 0.53287446 0.306725 0.008912295 -1.1468728 -0.6065587 0.31726518 0.87838185 0.455917 -0.19261329 0.14800072 0.022161152 -0.51735455 -0.00461318 1.1054902 1.0148153 0.2905268 0.7210768 0.3048216 -0.53932774 0.5962264 -1.132304 -0.31967926 0.27979687 -0.33683383 0.18240981 0.7440255 0.22280587 0.7109868 0.7679994 0.37871945 0.28255063 -0.3024522 0.274312
D007249 0.09796375 0.33310118 0.06512466 0.17539759 0.5556461 -0.12117518 0.21293858 0.34666198 -0.36718702 0.26655662 -0.11842301 -0.20586339 -0.16810097 -0.07481434 -0.71643114 -0.3134195 -0.62965655 0.07748288 0.40406018 0.2329372 -0.0715626 -0.060580194 -0.10142586 -0.22635782 0.06536399 0.08797946 0.20716822 0.105667606 0.15222272 0.37404454 0.59189457 0.11741922 0.43253082 0.2010859 0.06870528 -0.58461815 0.20446618 -0.4212401 0.20043322 -0.09786634 -0.18969108 0.47894162 -0.28627297 -0.4980234 0.12212725 -0.26402694 -0.11347545 0.53032094 -0.10741023 0.29809454
D009362 0.21458094 -0.07544536 -0.30484512 -1.0779115 -0.11837287 -0.091087334 0.75518763 0.36381602 -0.12532967 0.7220853 0.7489602 -0.100538135 -0.574708 0.54786295 -0.37767968 0.072364874 -0.21209379 -0.040849898 0.24815649 0.058061875 -0.46161243 -0.3170148 0.17408502 0.4920592 0.22563758 0.197113 0.0290631 -0.3225087 -0.677957 -0.021129312 0.28653955 0.7823605 0.34837878 0.6545554 0.21646035 -0.2131595 -0.0066247713 -0.7742463 0.11806776 0.4623877 0.1308689 -0.08858618 -0.17689842 0.31640226 0.001215349 0.40745628 0.43779543 0.31829926 0.23941235 0.14083998
D002318 -0.5597587 0.6684137 0.1360042 -0.052851774 0.5538062 0.38209343 0.88631725 0.05506351 -0.19536862 0.3958453 0.0003263426 -0.39276934 0.6152157 -0.09941446 -0.19899929 -0.44768173 -0.75230056 0.32858908 0.35215968 -0.42253762 -0.1482161 0.2083684 -0.102867685 -0.4265437 -0.12611303 -0.070760846 -0.25916782 0.37695065 -0.20329958 -0.222345 0.7411557 0.8187001 0.5333212 0.04036473 -0.45462507 -0.11730692 0.47313184 -0.5367749 -0.03333049 1.0074275 -0.15408662 -0.0708327 0.24187651 -0.7825348 -0.14400142 0.28663057 -0.528433 0.070008546 -0.1651491 0.38959277
D006973 0.055939946 0.11597346 -0.10050344 -0.25694314 0.14371854 0.43218115 0.56566095 0.25383604 0.12809846 0.2771737 0.3565197 -0.1562527 0.31381798 -0.29710475 -0.43714753 0.12138447 -0.4413497 -0.009604341 0.87612367 -0.38570207 0.32786015 0.21084529 0.12958397 -0.08902291 0.10062231 -0.25445747 0.12864049 0.53521824 0.09235723 0.3205567 0.6410939 0.19008297 -0.052412737 -0.20957687 -0.26765552 0.28259423 -0.027600335 -1.0115587 -0.20923664 0.60568815 -0.34757695 0.045345437 -0.23642486 -0.68691784 -0.11253928 -0.6660939 -0.3470682 0.37730724 -0.2716435 0.23819615
D006470 -0.16101941 0.021188805 0.023150133 0.0909863 -0.0928286 0.18269375 0.291919 0.43197754 -0.332849 0.41967455 -0.13258988 -0.27465934 -0.52445406 -0.13075738 -0.22220528 -0.13058971 -0.027491538 -0.043534055 0.41994342 -0.21410705 0.4849477 -0.031109486 0.37259144 0.21138243 0.45819163 0.09895503 0.0867767 -0.43707156 -0.48194286 0.37585944 0.24851286 -0.0014861046 -0.4600829 0.3396957 -0.38838756 -0.06773323 0.33869946 -0.9194816 -0.2156049 0.2920478 -0.13287604 0.5706927 -0.0102635175 -0.4230486 -0.31374678 0.104915835 -0.099256754 0.14743707 0.6352865 0.57000864
D009203 -0.6155904 0.05604227 0.44880992 0.2049482 0.70769215 0.23673046 0.43864372 0.41423178 -0.6756242 0.07977709 0.16850954 -0.3092531 0.8690366 0.108939596 -0.5732059 -0.0364883 -0.36418897 -0.11335559 0.29832944 0.22545898 0.33995482 -0.08082963 0.5316156 -0.20185885 -0.3432239 -0.1550953 -0.64008766 1.0012424 -0.42702618 0.44186562 0.2727633 1.0155349 0.040447574 0.03762698 -0.15900816 0.13410121 0.4904887 -0.9040078 -0.37334287 0.5324427 -0.70089114 0.06421928 0.49133378 -0.118283994 -0.23007432 0.2318805 -0.054042373 -0.18426307 0.45259386 0.5645838
D011127 -0.18151997 -0.16791 -0.263701 0.08118672 0.30695522 0.2132136 -0.12021602 0.63730377 0.20629387 -0.07245347 -0.08620971 0.10084565 -0.69890326 -0.09157303 -0.46425408 -0.5903609 -0.54888713 0.10550909 -0.23998152 0.07597113 -0.7711283 0.31782597 0.23549685 0.16617978 0.47747588 0.14184101 -0.11336144 0.078227475 0.31980222 0.24821773 0.63171625 0.09404256 0.01389492 0.47749346 0.25236735 -0.24793783 0.7340721 -0.68557805 0.001734493 -0.02026961 -0.5378818 0.48488966 0.42599183 -0.037981994 0.6572099 0.45212767 -0.076413825 0.2717195 0.28355482 0.4404178
D009336 -0.06741618 0.32957017 0.042787258 0.24043505 0.26986712 -0.30239996 -0.0023362066 0.11289715 -0.23155145 0.21333827 0.07783864 -0.15623231 -0.1903492 0.16685922 -0.67606056 -0.27409872 -0.26371312 -0.1538923 0.14363037 0.03969087 0.20212665 -0.4482706 -0.03428913 -0.122526206 -0.14588332 0.37549585 0.120623305 0.070512846 -0.06666385 0.24531041 0.50031435 0.2355244 0.17852007 0.44403064 0.116619155 -0.79694366 0.013816618 -0.7104705 0.35210097 0.095603235 -0.17780583 0.09978162 -0.4430165 -0.32641742 0.27143365 -0.1449392 0.16499609 0.14067851 0.19208512 0.06888659
D020521 0.11152558 -0.008396461 -0.19227223 0.03222133 0.4194622 0.7350492 0.3646237 0.5752816 -0.7286813 0.16345054 -0.044188727 -0.038984787 0.108024634 0.45997858 -0.37830004 -0.18696249 -0.45074615 0.41935334 0.2704292 -0.45845062 0.20639461 -0.3417694 0.53916335 -0.18438879 -0.21414304 -0.4213041 -0.11180061 0.6844297 -0.6396648 0.2556363 -0.09931179 0.35591358 -0.120870896 0.10646582 -0.09284827 -0.062463846 0.1412008 -0.40503177 -0.14513952 0.5033564 -0.60209626 0.23437625 0.3563768 -0.52186334 -0.34501177 -0.09546092 -0.44346765 0.13527259 0.25867915 0.534121
D014652 0.024854746 0.37501043 0.089494154 -0.11501525 0.63199526 0.35417375 0.82370335 0.33890685 -0.25495738 0.28072396 -0.005500752 -0.051320516 0.62006736 0.021783084 -0.25324365 -0.35323218 -0.81523305 0.22090898 0.39613524 -0.5125335 0.12898158 0.016855998 0.07480463 -0.19181563 -0.13996772 0.20026833 -0.24763925 0.6057775 -0.2660928 0.0062637674 0.47558263 0.5797338 0.41664153 0.09139937 -0.5841591 0.07435123 0.37503865 -0.36081052 0.12083879 0.8227151 -0.11137889 0.030740548 0.19440958 -0.80101573 -0.15202205 0.1141222 -0.48107216 0.16073997 -0.19297358 0.28210148
D012640 0.090437055 0.34625736 -0.71926063 -0.13679789 -0.06983726 0.8980007 -0.414911 0.42863253 -0.85012543 -0.30905524 -0.6045625 -0.30106616 -0.16779047 0.23609085 -0.14520802 0.038281757 0.03793619 -0.3688555 0.10565046 -0.7884529 -0.13424075 0.26156917 0.62921876 -0.14690593 -0.5722908 0.18588749 -0.68934697 0.5625581 -0.28083846 -0.21308589 0.630135 -0.1696363 -0.3825534 0.40998927 0.16458437 -0.22992353 -0.41164258 -0.7462049 0.118462674 0.20873559 -0.0437734 0.06741445 -0.18966292 0.02733176 -0.48102134 0.04563082 -0.02397843 -0.17476498 -0.32255697 0.44998467
D007938 -0.34020972 0.20774055 0.04224518 -0.22847882 0.3095573 -0.48543078 0.21504864 0.42314178 -0.18758696 0.683147 0.26552254 -0.067367174 -0.6289938 -0.14377108 0.51384676 -0.5043885 0.28177673 -0.04362751 0.44247782 -0.3180759 -0.7053455 0.45814946 0.75387424 -0.12829275 -0.26322013 -0.22307126 -0.33876473 0.22502923 -0.7602818 0.1803363 0.66469234 0.02693096 0.43262503 -0.013135532 0.42650458 -0.07723491 0.36721686 -0.71317756 0.7605437 0.5766341 0.6794017 -0.07251114 0.18920058 0.2783769 0.009939828 -0.41871557 0.6585068 -0.10234635 0.606142 0.3364094
D005355 0.07957822 -0.32548252 0.16720338 -0.1372811 0.06651382 -0.42108884 0.3498228 0.17468354 0.035823923 0.20002104 0.4901839 -0.5533036 -0.35659173 0.012753224 -0.52303946 0.56013113 -0.28256243 0.47098085 0.78504986 0.6989958 -0.036777362 0.2721096 0.3284775 -0.16684714 -0.3600758 -0.14246933 -0.50456274 0.35384312 0.28833982 -0.30933553 0.787419 -0.20362438 0.16744635 -0.013737526 -0.107857466 -0.82684773 0.67384464 -0.64425504 0.19902521 0.39848968 -0.4939457 0.54801726 -0.21636431 -0.3908289 0.019476729 0.097357586 0.15653455 0.5064345 0.08634087 -0.2678199
D012598 0.015016406 0.25190774 -0.35596213 0.2672467 0.406319 0.25183612 0.7750324 0.22028926 -0.66378176 -0.7308981 0.5629375 -0.5239838 -0.4732333 0.5828519 -0.39155254 0.028717002 -0.9105124 1.0669916 0.3129513 0.0934456 -0.03537684 0.0059836665 0.5531815 0.22385073 -0.45223564 -0.07655957 0.2324311 1.220322 0.5185792 0.09264939 -0.09867 0.2046037 0.18105562 0.13160719 -0.38096538 -0.1264245 0.051074233 -0.39449605 0.24929692 0.19589639 0.9630776 0.78676444 0.28840244 -0.31523195 0.44974414 -0.25758517 -0.3046051 0.24128138 0.088422775 0.8478838
D004630 -0.6261789 0.15617652 -0.29626274 -0.16353543 0.13507678 0.19579928 0.20146829 0.048294753 -0.41380963 0.32263175 -0.53815985 0.22826515 -0.1777097 -0.10843172 -0.6284735 -0.22975297 0.18370783 0.057860177 0.61040497 0.07063534 0.24276653 0.15612295 0.5005708 0.30065385 0.1620637 0.10274485 -0.2373638 -0.012882956 -0.04454457 0.46939263 0.008003871 0.454205 -0.43688047 0.085729614 -0.24098845 -0.17231593 0.06964135 -0.7653525 0.18739977 0.14516243 -0.6023998 0.16599299 -0.0062871207 0.16216904 -0.21441582 0.110340245 -0.47334966 -0.15378033 -0.06731773 0.4000159
D011471 0.21252653 0.40884978 -0.27968943 -0.19764891 -0.111692905 -0.7265444 0.65288126 0.33567366 -0.027812036 0.31216913 0.45332405 0.16535124 0.115841165 0.89166 0.09951185 0.12625892 -1.2953057 0.46981615 0.57647383 -0.3563458 -0.88585514 0.44668135 0.6865673 0.65175706 0.09144586 0.015463928 0.6262491 0.26072446 -0.4908063 -0.18432625 0.08397425 0.8542679 0.8785502 0.4906657 0.40806848 -0.3340603 0.30047545 -1.081603 -0.083587684 0.61300844 0.028007708 -0.47410452 0.37360644 0.21505918 0.37742898 0.17918041 0.47796428 -0.03809449 -0.19107242 -0.032813817
D007238 -0.22736236 0.030378789 -0.23521234 0.10571353 0.33685103 0.08012878 0.8045608 0.4225225 -0.96002877 0.45067948 0.32101473 -0.27621984 0.36677125 -0.19328056 -0.24864025 0.28251716 -0.5559767 0.1732066 0.13412432 -0.39081338 0.25945503 -0.33459005 0.71341145 0.06377314 -0.33733872 -0.4130402 -0.3966599 0.79403996 -0.4003679 0.8974971 0.19797818 0.52509487 0.070205085 0.03988528 -0.25250018 -0.058709804 0.17501847 -0.6234839 0.0044426788 0.24028242 -0.87393665 0.06300509 0.23190619 -0.26146638 -0.42995536 -0.21636388 -0.10346545 -0.07836645 0.35081756 0.32616875
D001835 -0.27091032 0.57249516 -0.3527906 -0.15132084 0.08083364 -0.046804074 0.12843548 0.14578143 -0.2574007 0.22405723 -0.0038117869 0.2746632 0.07859069 0.29858214 -0.44435906 0.055337545 -0.118714064 0.03832183 0.16762583 -0.51079375 0.16204782 0.01963364 -0.21940084 -0.28605047 -0.3348768 -0.19705425 0.27033186 0.048928075 0.6277979 0.03035767 0.9876742 0.45102084 0.094606556 0.105542704 0.19247164 -0.29591358 0.75891495 -0.6396266 0.14941107 0.3974019 -0.2902512 -0.13014877 0.056798313 -0.3214628 0.16479747 -0.22274719 0.3719374 0.502075 -0.0021251868 0.20279554
D009765 -0.56537384 0.37160298 -0.19742496 -0.26253092 0.02689601 0.768656 0.5369728 0.24516845 -0.49174744 0.43076763 0.08928494 -0.17861627 0.14561716 0.16871494 -0.44752064 -0.2419021 -0.37829682 0.20460217 0.5400146 -0.2754778 -0.23753469 0.29610214 -0.36830956 -0.052770928 0.6413707 0.35037178 0.19372916 0.61187863 0.58714426 -0.59379 1.1488323 0.8957288 -0.20803975 -0.08072087 -0.2740958 -0.122824766 0.8799525 -0.28249735 0.3412832 0.23862965 0.084378414 -0.30129668 0.37689954 -1.2110742 -0.1412708 0.36570868 0.40441847 -0.041931678 -0.087613635 -0.056505263
D019636 -0.43765843 0.93234396 -1.2757336 -0.21311659 0.6333814 -0.10854678 0.22228599 0.72659993 -0.4170308 0.37182286 -0.28178072 0.18174972 -0.32186505 0.45629904 0.033336695 -0.42852843 -1.1357882 -0.12811111 -0.21853758 -0.17100275 -0.39792052 -0.112318285 0.015295137 -0.534839 -0.12522842 0.080314174 -0.7247531 0.9572208 -0.3300132 -0.4944007 0.1098395 -0.32783255 0.2577702 0.28729564 0.64295334 -0.5499104 0.11326036 -0.4679195 -0.15850534 0.42115337 0.049821317 0.74756616 -0.06954413 -0.6580169 0.17692335 -0.44467217 -0.54259473 0.103025414 -0.01982559 0.14441149
D012509 0.09532509 -0.43293506 -0.65986085 -0.28737652 -0.09575895 -0.486418 0.123627536 0.24164799 -0.4098087 0.65779287 0.90619075 0.123810664 -0.71317995 0.31497574 -0.38035685 -0.29887527 0.05917848 -0.028304705 -0.056891702 -0.023823254 -0.4486498 -0.065371715 0.7556404 0.24760327 0.12146239 1.0043854 -0.20918527 0.38641027 -0.1999135 -0.01621711 0.4057095 0.53739756 -0.035883363 0.84628606 -0.12220394 -0.36878043 0.13210449 -0.8309711 0.83288157 0.5853518 0.34351748 -0.44958064 0.54062486 0.6409801 0.40573093 0.16814199 -0.10655021 0.2368486 0.59099364 0.27018395
D008223 0.20304033 0.039660405 -0.16640687 -0.4609879 0.3887374 -0.4995381 0.24389005 0.05279205 0.016791714 0.5459412 0.14463969 0.11370166 -0.4580162 -0.16362548 0.097528145 -0.3610186 -0.2062496 -0.49985734 0.24563344 0.16879675 -0.73658663 -0.06100511 0.51008433 0.43837732 -0.20329607 0.16271396 -0.090255104 0.19541672 -0.40803775 0.3465757 0.6643325 0.34809804 0.14413328 -0.02412696 0.07630637 -0.07429374 -0.37987676 -0.73590785 0.58463144 0.80981433 0.5764707 0.36678937 0.09400378 0.49697304 0.22723433 -0.49719945 0.17516454 0.28364414 0.40564114 0.316258
D001168 0.43644407 0.44488984 -0.22996108 0.030325385 0.76210594 -0.6901049 0.545625 -0.37467045 -0.3756259 0.7510697 -0.40829867 -0.68759626 0.32199693 0.32137886 -0.38524345 0.17115654 -0.15919888 0.46992648 0.21799706 0.16814193 0.39384475 -0.25838166 0.39288452 0.124117345 -0.38155398 -0.2945045 0.42235133 0.20990787 -0.09251863 -0.10862231 0.92828417 0.2898217 0.27966508 -0.17977528 0.72849435 -0.642903 0.6586745 -0.52095896 0.5433799 -0.13008821 0.40071857 0.23486361 -0.49604684 -0.37829036 0.56009257 0.1698631 -0.60961425 -0.30462188 -0.064503394 0.4457878
D014456 0.48528877 -0.30252993 -0.15757748 0.09891594 0.541441 -0.032786984 0.35921788 0.58992916 -0.040719416 0.24624643 -0.55411524 -0.20150234 -0.26803783 -0.04983924 -0.47485173 -0.6939016 0.110463984 0.53977615 -0.62623626 0.40839517 0.43035778 -0.00094422593 0.12186131 0.48220646 -0.5710319 0.7037304 -0.030560963 -0.46551558 -0.08866645 0.7235725 0.18664 0.4752974 0.03080536 0.14897136 0.42583537 -0.48150003 0.7348379 -0.85448575 0.22603874 0.7102031 0.16366461 0.56469005 0.40560654 -0.32007077 -0.058131207 -0.02000256 0.28052443 0.24742292 -0.38705072 0.22736128
D003251 -0.0704073 0.10424607 0.2505388 -0.08091975 -0.16169679 0.048575897 0.6050966 0.81408435 -0.53741145 0.32918972 0.18539858 -0.4009511 -0.06611145 -0.093629 -0.997677 0.04754261 -0.7463829 0.07827791 0.17695111 -0.056766715 -0.0023956513 -0.46349597 -0.6077599 0.54726255 0.011733781 -0.55831176 -0.0030656217 0.03507387 -0.11730266 0.1860877 -0.45981225 0.4846459 -0.22354162 -0.7242686 -0.151954 -0.081626795 0.89441013 -1.0359213 -0.03128353 0.28042632 -0.23940158 0.35766658 -0.25067213 0.058892474 -0.6326209 0.14545363 0.13564998 -0.008377185 -0.19996713 0.5323029
D006333 -0.3419955 -0.0138971275 -0.081420414 -0.03983938 0.103601456 0.05027339 0.32376593 -0.1580677 -0.030859988 0.020942066 0.20722201 -0.08524783 0.5911151 -0.054716293 -0.43694016 0.039910343 -0.12135155 0.2286296 0.33039042 -0.2601296 0.013215274 0.002832989 0.3017917 -0.2059816 -0.085962325 -0.14429605 -0.42071062 0.84029686 -0.2668555 0.2715947 0.5639268 0.6466509 0.09131778 -0.51409924 -0.14885764 -0.48112455 0.49070343 -0.7711964 -0.59084225 0.9351161 -0.6992313 0.026197992 -0.3033248 -0.19463217 -0.2560694 -0.04527859 -0.22369328 0.27100012 0.3958458 0.45358348
D008107 -0.37038973 -0.38575652 0.054913167 -0.41327924 0.5004389 -0.44481173 0.07056266 0.009111614 -0.41948032 -0.2163327 0.09321651 -0.26219887 -0.22540288 0.15169932 -0.25514007 -0.495428 -0.24824794 0.06597983 0.79226124 0.2167346 0.08100821 0.23443185 -0.16200411 0.4533038 -0.38929483 -0.43109164 -0.025988722 0.5665383 -0.30060136 -0.63466537 1.101482 0.026072927 -0.25384703 0.39008522 -0.33667824 -0.47805318 0.47854993 -0.8251494 -0.037158813 0.6372894 -0.10637164 0.40204036 -0.24937803 -0.7266577 0.07039463 0.014351559 0.27099895 0.48140535 -0.3365648 -0.4440136
D009625 0.97441447 -0.24609345 -0.41784787 -0.8443481 0.59046334 0.2600256 0.7004791 0.93500304 0.34885132 0.64222586 0.6720944 -0.28847924 -0.002968078 0.62399614 -0.631736 0.46628192 0.10172875 -0.41875553 0.47646564 0.33378592 -0.69176465 0.032606583 0.04360123 0.056059897 -0.3501624 0.08189303 0.32888982 -0.56655985 -0.86431175 -0.54057586 0.81850994 0.021981064 0.7049351 0.6949118 -0.14426872 0.09493568 0.12802905 -1.1417376 0.054850694 0.44481546 0.15928951 0.67806274 0.16528027 0.93120927 0.41635182 0.95101017 0.60081476 0.35016453 0.016679764 0.17010054
D006331 -0.33045474 -0.06667578 -0.29926345 -0.29108927 0.15898076 0.0938355 0.6582285 0.030217545 -0.011094654 -0.3118394 -0.084812984 -0.4178027 0.789406 -0.54740924 -0.7642244 -0.3352665 -0.21072428 0.29231986 0.22559814 -0.55457306 0.028970158 -0.16585049 0.29903287 -0.17908671 -0.04688022 -0.42575312 -0.4994317 0.6968554 -0.23526119 -0.2152358 0.35715243 0.740975 0.19579913 -0.416667 0.03876289 -0.3006079 0.36013666 -0.7081331 -0.2109854 0.46338475 -0.22595489 -0.0036702878 0.037867982 -0.36517668 -0.13585654 0.0038482544 -0.15915145 -0.020313473 -0.021124769 0.5472694
D009135 -0.04166615 -0.36867684 -0.22035442 -0.53388333 0.46324697 -0.3252114 0.11870851 -0.12035845 -0.5336622 -0.04185105 0.40332612 -0.05660636 0.17386475 0.07899832 -0.13219172 0.06752242 -0.05410188 0.7850638 0.12822123 -0.90858227 -0.109522395 -0.5721393 0.27946004 -0.61530167 0.3571225 0.20212817 -0.8759015 1.2782071 0.40162435 -0.12368175 0.6206222 0.22926556 0.14027242 -0.5316439 -0.21511236 -0.37955803 0.17945057 -0.7082696 -0.45422423 0.4134341 -0.08980281 0.5459702 -0.4305026 -0.102621965 -0.11905759 -0.05160915 0.035229877 -0.46504515 0.44757825 0.5313773
D051437 -0.42120376 0.37180808 0.22743262 -0.3088269 0.06509352 0.10854585 0.0020507246 -0.10563686 -0.023407185 0.13756163 0.18086556 -0.060057916 -0.52853405 0.40693387 -0.66384476 -0.10341608 -0.08250034 -0.098186746 0.14477414 -0.4435252 0.33272302 0.2580057 0.19777061 0.45415276 -0.7820021 0.5869267 -0.06845889 0.6655005 -0.23074058 0.12665758 0.3853106 0.03588937 0.12200154 -0.56111276 -0.69619536 -0.19379643 0.31208047 -0.7538375 -0.24090937 0.69976604 -0.39264956 0.2296187 -0.14637353 -0.3411192 0.009123917 -0.20171739 -0.11425904 -0.43915892 0.08094713 -0.020300113
D006505 -0.4437353 -0.26144597 0.6049626 -0.35860234 0.49166778 -0.96290696 0.50436646 -0.06551561 -0.5842176 -0.14592807 -0.43008476 -0.37154442 -0.98303545 0.38157868 0.10810236 -0.9248237 -0.108699314 -0.016275706 0.6460332 -0.17547631 0.21906552 -0.06895252 0.12750603 0.49260932 -0.6848539 -0.742321 -0.28634664 0.6664439 0.30560035 -0.55255336 1.2525586 0.5603029 0.070528746 0.20543358 -0.09809427 0.00819544 0.28815365 -0.9722192 0.42490205 -0.28526065 0.06120305 0.20100443 -0.08725405 -0.20052245 0.070079654 0.17245053 -0.031636104 0.9095624 0.06506526 -0.44159478
D008545 0.082209475 0.15364918 -0.3233275 -0.54230857 0.27692002 -0.5963396 0.5336216 0.5422017 0.62672013 0.26658624 0.5825253 -0.35004213 -0.67146 0.41962415 -0.32076025 -0.8206364 0.089256145 0.17825918 0.08702826 -0.38209862 -0.40002415 0.44504628 0.07461209 0.1666247 0.48472118 0.8523031 0.013420838 -0.24758244 -0.58149475 -0.33343324 0.3127484 0.8912652 -0.04546404 0.5334568 0.7167752 0.038554177 -0.4170512 -1.0477581 0.27025086 0.39018694 0.5666708 0.13611805 0.005776711 0.20023763 -0.24834333 0.12479518 0.28523445 0.5207545 0.2925252 0.67351586
D014947 0.20219018 0.65813917 -0.33368224 -0.006007683 0.29927206 -0.062284954 0.014426462 0.26456603 -1.2056866 0.7571008 -0.07833169 0.57657075 -0.4142086 0.35659882 -0.6490034 0.037227463 -0.25216946 0.80881524 0.46471727 0.2346623 0.5945447 0.18756814 0.27142447 0.06557167 0.06793739 0.30674845 -0.46455002 -0.24307254 -0.17722572 -0.019609304 0.021359554 0.29506427 -0.12748858 0.30944684 -0.102328695 0.115144566 -0.06635462 -0.9397946 -0.023261439 -0.19154508 -0.31553861 0.13038512 -0.13347004 -0.5618151 -0.21954626 0.70194393 -0.6157858 -0.12418102 -0.08729173 0.08471933
D003141 -0.16957603 -0.040758923 -0.29320917 -0.7778686 0.22630015 -0.60817736 0.2928284 0.24774024 -0.10628708 0.5900958 -0.8075666 0.030167736 0.09209203 0.2103167 -0.41217232 -1.4141574 -0.15860821 0.82831717 0.2495409 -0.27354917 -0.44575796 0.43989772 0.4299268 0.055456135 -0.3236809 -0.22458407 -0.06870399 0.018928349 0.0143226255 -0.0043730615 0.84284574 0.32604936 0.28436777 -0.1365914 -0.35503417 -0.14284982 0.20507614 -0.3203942 0.6184587 -0.0746792 -0.026504498 -0.21810108 -0.2660799 -0.42209995 -0.28849792 -0.17450266 -0.8160149 -0.20742965 -0.36682907 0.44544303
D007674 -0.3389062 0.40069485 0.21458979 -0.35828364 -0.34669536 0.10488752 0.48525184 0.17440471 0.1773297 0.14728674 0.48407856 -0.33756143 0.013517023 -0.15561648 -0.13531013 -0.54394215 -0.30102572 0.05984483 0.4596543 -0.5521738 0.36947998 0.23441796 0.14053123 0.20984447 -0.91987556 0.4283064 0.2924384 0.8888792 0.11671675 0.21785767 0.700752 0.14036046 0.28095293 -0.26073655 -0.26007083 -0.21736507 0.52192235 -0.6954084 -0.3744621 0.6035455 -0.2521258 0.4311743 -0.21039978 -0.5650338 0.4005714 -0.10838322 -0.5085159 -0.2551052 -0.07330722 -0.06529017
D012769 -0.6231385 0.5417766 -0.0976587 -0.36470458 0.24360995 -0.2577765 0.38833258 0.21354617 -0.30630925 -0.08495801 -0.5103346 0.044968154 -0.25300968 0.096869476 -0.99353784 0.042842813 -0.21634074 0.106783345 0.3233824 -0.0012849427 0.10173391 0.4143857 0.7167778 -0.62255883 -0.041854106 0.39670384 -0.3309981 0.11575294 -0.4451386 0.13476726 0.049260795 0.34283993 -0.34093854 0.35089123 -0.12386034 -0.41013104 0.43344048 -0.59770864 0.00875722 -0.038447473 -0.38472268 0.262384 -0.50115925 0.1750462 -0.072837666 -0.060990557 0.12163729 -0.46814874 0.42531902 0.15945409
D005334 -0.18163887 0.019559309 -0.37104186 -0.34620312 -0.25591913 -0.28772363 -0.20074399 -0.101387486 -0.44165164 0.10854918 -0.66104364 -0.58626825 -0.67271835 0.09826291 -0.31081086 -0.34391883 0.21712819 0.05468969 0.36489636 -0.082160786 -0.06805904 0.1420609 0.45271832 0.21397339 0.03971968 0.118224114 0.2026738 0.002052277 0.008029721 -0.11890726 0.41540363 0.5727285 0.029818721 -0.29296523 -0.34944794 -0.38293663 0.21735549 -0.5163209 0.3830627 0.02149094 -0.2530104 0.08073231 -0.47731912 0.39948255 0.04902212 -0.28503764 0.15916348 -0.30013022 0.2745356 0.8435045
D011014 -0.120891094 0.08513816 -0.3067886 -0.019494276 -0.53533363 -0.5114485 -0.16994241 -0.14991027 -0.3499374 0.22764397 -0.5513626 0.11949548 -0.11721244 0.117579445 -0.59864837 -0.47186133 0.31061816 0.3258705 0.24598324 0.24012104 0.03386524 -0.03521773 0.66677684 0.28965834 -0.09512465 0.06673875 -0.17436655 0.6425757 0.013002612 0.16652814 0.5100563 0.22917113 0.9200636 -0.055879235 -0.4507613 -0.3001606 0.31698835 -0.4278277 0.38139358 -0.060427092 0.02688302 0.4568771 -0.060567178 -0.17237073 -0.6802876 -0.25545374 0.33816493 0.06469061 0.078778476 0.6432622
D007511 -0.49866977 0.33901966 -0.36394066 -0.21682605 0.51391566 -0.027674122 0.41980055 0.86634684 -0.50944304 -0.007962663 0.12606612 0.10841498 -0.1397796 -0.27433875 -0.19400556 0.02625253 -0.74987113 -0.0010345535 0.500052 -0.042014793 0.7200971 -0.82141405 0.14414617 0.1263967 -0.29826856 0.42459065 -0.05430516 0.7284264 -0.01224866 0.5304317 -0.23739696 0.86004937 -0.43483046 0.13631739 -0.3437209 -0.19171073 -0.13841407 -0.8148379 -0.33917224 0.12446363 -0.3471259 0.12914859 -0.32111436 -0.54480934 -0.10604278 -0.07865031 0.004751416 0.12596965 0.22227772 0.8289848
D000236 0.06972932 0.30385765 -0.33399937 -0.58054584 0.51829004 0.47798318 0.91112435 0.82819235 0.23454271 1.0419713 0.0962908 -0.118084736 -0.18321618 0.44822812 0.38390335 -0.14612806 -0.2120859 -0.41532683 -0.04835307 -0.07170937 -0.98652834 -0.2043184 -0.4105988 0.75589204 -0.28871045 0.11200137 0.039702136 -0.029574508 0.055252824 0.14321363 0.76102006 -0.14507192 0.37267333 0.33895946 -0.123908825 0.13018425 0.25977078 -1.3519115 0.023900235 0.6555113 -0.9934264 0.24764548 -0.21227698 0.45707852 0.061493173 1.2670553 0.7892168 0.5223881 0.4237922 0.302116
D000230 -0.056116793 0.23330799 -0.05993942 -0.61616564 -0.42980298 -0.48747784 0.35056677 0.6332435 -0.2771672 0.93931675 0.54668564 -0.29991546 -0.113766104 0.40085822 -0.2912031 -0.1702677 -0.17456958 0.10975771 -0.24799743 0.33486232 -0.767471 -0.14895073 0.3220246 0.87298626 0.058470123 -0.2092544 0.24046083 -0.45713988 -0.16488202 -0.051129382 0.67304784 0.5318755 0.4480408 0.28878465 0.2084865 -0.320254 0.38466656 -1.0033277 -0.07454832 0.35900158 -0.3506766 0.5636541 0.79694104 0.59305954 0.007546529 0.23301062 0.70674837 0.4572204 0.08765327 0.56023675
D006528 -0.9053569 -0.49616256 0.1614424 -0.3105603 -0.07566261 -0.8057315 0.38178015 0.6526068 -0.09770412 0.49433017 0.59418327 -0.28877494 -0.38379985 0.38366514 0.087616704 -0.50431025 -0.20237042 0.5345993 0.5831943 0.17694888 -0.26683703 0.2358448 0.20854929 0.42759934 -0.4030757 -0.7453361 -0.29380032 0.22967725 -0.08366254 -0.56393003 1.2156516 0.43033734 -0.15244454 1.0966773 0.05186088 -0.16008455 -0.04386532 -1.0119282 -0.110196725 0.7357157 -0.08219334 -0.105541445 -0.16699745 0.027388692 0.28391033 0.3250054 0.6241052 0.7611479 -0.047694627 -0.10885176
D004487 0.16138603 0.4205966 -0.12731409 -0.07632659 0.21646033 0.06956115 0.035666037 0.086537346 -0.09349436 0.5416716 0.18595417 -0.079665855 -0.36094287 -0.18157554 -0.24030575 0.0074890605 -0.21043897 -0.16816401 0.5153961 -0.367938 0.60243124 -0.31371486 0.18994157 -0.038210206 0.043137755 0.4039612 0.04880812 0.2209653 -0.10779122 0.39653352 0.5589318 0.356745 -0.2827839 -0.040569864 0.19861086 -0.25484702 0.38628373 -0.59533864 0.18846662 -0.31428713 -0.09925643 0.30448556 -0.86425817 0.2969632 -0.5519286 -0.005980257 -0.16028307 0.52884775 0.0364838 0.5464229
D000783 0.09304647 0.5303293 -0.28204829 0.30095336 0.044397987 -0.3960703 1.0900372 0.83779305 -0.48474807 0.13126124 -0.1633088 -0.5794026 -0.16507183 0.1032496 -0.02286501 0.41384456 0.16424991 -0.17056683 0.5581218 -0.26460534 0.5228648 -0.65808904 0.1860608 0.51871705 -0.27201355 -0.14353552 -0.3864652 0.4968592 -0.29013118 0.05763877 -0.18426196 0.45985934 -0.059595983 0.08508141 -1.0721909 -0.12415393 0.2677873 -1.2145894 0.33606914 0.31757447 -0.57626396 0.21490546 -0.27755785 0.112306766 -0.1261379 0.5103321 -0.8733043 0.10048967 0.48824045 0.6590784
D013927 0.14640544 -0.17234427 0.40836206 0.5668313 -0.023467269 0.10837812 0.6565435 0.40553826 -0.32686234 0.25559056 0.09545889 -0.31504658 -0.1959933 0.074435346 -0.2913929 -0.18525973 -0.4192587 0.27852285 0.56055707 -0.020069445 0.5390437 -0.35674784 0.2406341 -0.03591662 0.14010668 -0.17926823 -0.39169133 0.22538015 -0.54047644 0.29985592 0.4401578 0.17976989 -0.3687109 0.2331174 -0.6614136 -0.31916434 0.27921894 -0.9116688 0.3029124 0.45922875 -0.15724772 -0.1593524 0.085600086 -0.16630511 -0.25321552 -0.1815899 0.3101846 -0.50587744 -0.011920346 0.50123686
D001249 -0.30250427 0.27967873 -0.013444967 -0.18518564 0.5911158 -0.07106343 -0.059549015 -0.36068785 -0.40221873 0.54474616 -0.54714864 -0.475499 -0.023889393 -0.2860343 -0.5270591 -0.1899733 0.05458531 0.31662303 0.27373716 0.6989496 -0.6685975 0.5529857 -0.0017949541 -0.22027369 0.2150032 -0.2851183 -0.050843846 0.8967126 0.19613096 0.48252574 0.6841849 0.1301735 0.44289553 0.05149867 0.8654312 0.1118995 0.6741082 -0.5945197 0.23648618 -0.026386036 -0.48281637 0.26465482 0.32169113 -0.19852725 -1.0926074 0.17775068 -0.37230337 0.5806129 -0.50151485 0.9494158
D008175 -0.030533686 0.27789086 0.17384893 -0.662646 -0.4578194 -0.5015278 0.46475625 0.20280333 0.10220902 0.2087302 0.422951 0.021461444 0.11266539 0.61441755 -0.29793176 0.0819358 0.16917725 0.112644486 0.030157484 0.03104809 -0.6970757 -0.021294313 0.5200967 0.5672912 0.6189465 -0.15024595 -0.13217159 0.31104174 -0.6478142 -0.0778008 0.9213354 0.9186053 0.97294086 0.22281528 0.22486953 -0.18869531 -0.15972766 -0.81661606 0.09393897 0.25700712 -0.13451737 0.13126941 0.23459505 0.19787164 -0.31667152 -0.26568183 -0.09975541 0.67776 -0.26373133 0.54334515
D006967 0.08627313 0.2787369 0.40815425 -0.40392596 0.40604255 -0.31661943 -0.48568094 -0.023547791 -0.28995493 0.36456212 -0.1824655 -0.38193047 -0.3478673 -0.23653069 -0.3741616 -0.37581378 -0.12747793 0.16441405 0.30696368 0.07868547 -0.44255182 0.669456 0.3758034 -0.4513078 0.26671338 0.011029982 0.02654252 0.09609181 0.2079995 0.7894835 0.4722812 0.40964013 0.062255062 0.3262842 0.7647878 -0.40186492 0.50488377 -0.86296934 0.41120404 -0.13196197 0.07419416 0.328109 -0.079464 -0.14282751 -0.55632335 -0.20205641 -0.5036335 -0.1962673 -0.61652356 0.51719224
D015658 0.1646371 -0.7657802 -0.37616265 -0.4875389 0.0006298208 -0.77713764 0.19587924 0.010596999 -0.42022705 0.22991738 -0.4238406 -0.036644854 0.030833576 0.33612716 0.18421492 -0.8278735 -0.48455966 -0.51624995 0.69755745 -0.10222979 -0.19717355 0.0100098 0.44525677 -0.24598725 -0.67839307 0.10978879 -0.055197556 -0.060296677 -0.08846101 0.110320315 0.89541805 0.58185536 0.35815236 -0.1877653 -0.47146878 -0.28144372 0.116454124 -0.80315804 0.20786527 0.07898847 0.2991131 0.044788484 0.49465477 -0.5076979 -0.008189049 -0.35627332 -0.873935 0.55822825 0.18257429 -0.11314001
D010051 0.049526386 0.6506951 -0.5169121 -0.6918623 -0.0732404 -1.0742933 0.31940505 0.35482338 0.12059585 0.35360673 0.9272843 -0.11398107 0.38014653 0.60385054 -0.13632679 -0.93015546 -0.41408342 -0.14157037 0.64855903 -0.23714185 -0.135803 0.512315 0.15063141 1.0651624 0.7144136 0.0055385204 -0.42525047 0.4170697 -0.44096524 0.30299273 0.93031085 0.28499818 0.21355157 1.0147514 0.4497261 -0.36136064 0.59811103 -0.666952 -0.37509915 0.43838742 -0.3494241 -0.16090046 0.5206046 1.268068 0.28605446 0.14798006 0.47096312 -0.2748812 0.065028265 0.16176824
D001523 -0.10123695 0.48928854 -0.73058647 -0.90900505 0.02798385 0.03446158 -0.020807402 0.26754335 -1.0402848 -0.025774853 -0.57158655 0.14704712 0.07687819 0.09454714 -0.10075042 -0.4223371 -0.41351458 -0.035610024 0.22928894 -0.6347984 -0.264325 0.7154768 -0.42813882 0.22257467 -0.028217865 -0.16703583 -0.38640583 0.4919722 -0.070371844 -0.46232903 0.36755523 0.2593713 -0.31442127 -0.33736712 0.5017571 -0.41775975 -0.316287 -0.4925708 0.41063675 0.4037958 -0.09521898 0.7649716 0.85575837 -0.415622 0.16367646 0.637656 -0.50117594 -0.16332163 -0.56916505 0.37265235
D030342 -0.11902315 -0.041749474 -0.28748173 -0.29620695 0.52589756 -0.088507146 0.4778526 0.4271752 0.07309841 -0.44668072 0.4906444 0.04034336 -0.22743955 -0.27417195 0.32776847 -0.35465604 -0.10204784 -0.18357041 0.5578899 -0.3871322 -0.29678458 -0.021229526 0.41502184 -0.014942328 -0.007384059 0.17743282 -0.38022488 0.22976437 -0.11131967 -0.51122755 0.30943194 -1.0576863 0.25867078 -0.33503067 0.11641796 -0.7864605 0.38663256 -0.70164144 0.35345393 0.15214153 0.028600551 0.25547546 0.04677341 -0.09147616 0.047011785 0.36320913 -0.08007379 -0.37458342 -0.19436072 0.7722421
D012004 0.13727385 0.1876055 0.11901421 -0.528862 0.5742135 -0.46911517 0.06646429 0.74960667 0.3013167 -0.2010304 0.15983418 -0.10181153 -0.103295825 0.72742087 -0.02603416 -0.6497211 0.20208253 0.6316164 0.29280382 -0.1072047 -1.1824915 -0.5923147 0.44986188 0.87639266 0.37692428 -0.15826257 0.2034747 0.2637984 -0.77226055 0.22911912 0.96528953 0.9930868 0.27662274 0.67358184 0.17504855 -0.13403618 0.78010386 -0.9862384 -0.53114855 0.42176387 -0.25575948 0.10454353 0.8469577 0.12214288 0.7278202 0.94400793 0.46062845 0.20601796 -0.49462163 -0.007289
D050197 -0.72266024 0.41211954 0.02689589 0.112478465 0.7402091 -0.1374293 1.0675021 0.85767657 -0.4398531 0.5253302 0.21597303 -0.8493819 0.4324274 -0.194677 -0.4530009 -0.120522276 -0.8158954 0.05658726 0.58959055 0.08906754 0.374624 -0.30548495 -0.19536576 -0.2888363 -0.65453076 -0.28970134 0.047209173 0.83340436 -0.032973696 0.034717355 0.3321866 0.32280338 0.21777403 0.09265059 -0.36688972 -0.3135258 0.7222549 -0.29229376 0.16701236 0.89005303 0.123572126 -0.17618684 0.37337592 -0.5109088 -0.04483131 -0.12483609 -0.52048105 -0.07056603 -0.03677745 0.6017178
D007154 0.17246707 0.62165064 0.11643378 -0.6253481 0.83375263 -0.3847062 0.7104008 -0.070113584 -0.074980125 0.038513806 -0.30621538 -0.85909325 -0.38738644 0.27686653 -0.19154944 -0.7559645 -0.49349585 0.18742546 0.6872738 0.5664284 0.015483248 0.073056884 0.03691277 -0.19659758 -0.08583424 -0.021175757 -0.24725759 0.38187316 0.071998425 0.6164845 0.90637577 -0.28834218 0.31675875 -0.24136262 0.25619742 -0.30219418 -0.46926612 -0.5882046 0.11146767 0.22398278 0.76521856 0.32960525 -0.03688689 -0.30744198 -0.13711531 -0.21454173 -0.067249835 -0.28361955 0.20007402 0.26412788
D013274 -0.14721686 0.092101485 -0.07280232 -0.70230585 -0.19948915 -0.66018933 0.5584827 0.88696027 -0.17807019 0.16443308 0.08355556 0.046246115 -0.16214114 0.4037644 -0.42059717 -0.09080881 -0.40044168 1.0250823 -0.13351902 -0.18031947 -0.32610363 -0.7113629 1.2257916 0.9733842 0.41992453 0.05321225 0.033476647 0.014974978 -0.3753327 -0.17401616 1.3707135 0.6761184 0.11300716 0.6543888 0.45598736 0.5440086 0.59236795 -0.4811197 -0.17263511 0.72742 0.31434172 1.0014025 0.62810117 0.59726083 0.47163686 0.0789313 0.6580069 0.22696936 -0.21764418 0.15010212
D005910 -0.01923065 0.37092397 -0.5751614 -0.6350047 -0.1485712 0.19290335 0.098108985 1.574364 0.03573647 0.46526307 0.46573022 -0.3620127 0.14218786 0.8249126 -0.039321646 0.24893463 -0.38753563 -0.30772373 0.30382484 -0.25148174 -0.92660767 -0.18791676 0.9314048 0.3574984 0.015256533 -0.12569399 0.16441692 0.50556356 -0.49924165 0.07126694 0.65799063 0.29517505 -0.609682 0.91434747 0.59259397 -0.5360707 -0.25359732 -0.67246145 0.37625864 0.053219564 0.57333094 -0.17207047 -0.3418715 0.09574647 -0.15443297 0.060932405 -0.0490994 0.07167086 0.56843454 1.0281842
D007153 0.048528466 -0.6150831 -0.07186558 -0.11456591 -0.07532477 -0.97991294 -0.39020905 0.065623455 -0.38356447 0.008780874 -0.13670254 -0.025366524 -0.21829645 0.36756968 -0.028482264 -0.85024416 -0.58808947 -0.24915816 0.6562494 -0.059783004 -0.5073992 -0.06121838 0.3452017 0.06835194 -0.28069103 0.09481542 -0.16524285 0.032300446 0.064114615 0.27320448 0.933007 -0.0856867 0.20673102 -0.406645 -0.3427516 -0.35569957 -0.013401953 -0.7208423 0.46045348 0.24643427 0.24498434 0.19348653 0.54887193 -0.2888276 0.07229313 -0.46087354 -0.6910296 0.22655514 0.10626356 0.3329447
D000860 -0.6173434 0.41960773 -0.3058102 -0.18698044 -0.5014812 0.06363309 0.2862094 0.3016741 0.12284533 0.37496096 0.19141825 -0.00447676 -0.12637702 0.0009634063 -0.44877115 0.019710569 -0.35061452 -0.18841802 0.5034413 -0.035266686 0.05371489 -0.2713938 0.27125832 -0.95109826 -0.004181405 0.14548133 0.14386714 0.26152796 -0.62421477 0.016406488 0.37024218 0.33917156 0.20397933 0.25397113 0.17653397 -0.60513777 -0.15099607 -0.718024 -0.11959673 0.2240768 -0.7464937 0.02570357 -0.2996343 -0.4226803 -0.062164936 0.0939393 0.33662814 0.8846722 -0.5772695 0.72393245
D053358 -0.27405652 0.16596547 -0.18853335 -0.15767777 -0.14306232 -0.10421854 0.09462961 0.36623412 0.062173013 0.31014132 -0.14670722 0.16703938 -0.08947337 0.1748972 -0.17957573 -0.11896013 -0.07067651 -0.0064789555 0.30075005 -0.1838062 0.11003127 0.20532031 0.24408339 0.028092671 3.1185773e-05 -0.30059406 -0.25129986 -0.13741152 0.25696278 -0.046331253 0.2502487 0.42895138 0.066911645 0.14385377 0.37547982 -0.20458117 0.3055487 -0.6379205 0.32625765 0.10676984 -0.1515482 0.23620872 0.123238854 -0.16998857 0.16581431 0.17562671 -0.24045396 -0.25136805 0.32186145 0.34972584
D008103 -0.15894684 -0.49152923 0.24506404 -0.45982417 0.22236493 -0.8062117 0.4879694 -0.013156512 -0.43943596 -0.15194264 0.171298 -0.19424945 -0.34570378 0.12155079 -0.20069556 -0.4844885 -0.19068336 0.5036311 0.7962546 0.38076445 0.081285104 0.37920162 0.23704056 0.43052268 -0.5869408 -0.4312237 -0.12784852 0.61159045 -0.056554645 -0.44909745 0.86403066 -0.066726856 -0.46043077 0.38523003 -0.2213749 -0.3564843 0.56595635 -0.8481705 -0.3150057 0.7169461 -0.11386168 0.602478 -0.3202211 -0.33056882 -0.06286022 0.20325525 0.45428395 0.68932307 -0.10301693 -0.51728386
D009202 -0.4023763 -0.025814302 -0.27970532 -0.44827166 0.47948626 -0.49025336 0.29736868 0.119080484 -0.2934075 0.033930343 0.4649934 -0.34090146 0.30379006 -0.47585282 -0.094106734 -0.03163709 -0.04783145 0.5066491 0.25504115 -0.7101828 -0.20827247 -0.37980855 0.04926137 -0.7900328 0.054514483 -0.31646574 -0.82302433 0.6925687 0.22997074 0.13738257 0.70585924 0.4910356 -0.04754962 -0.52064675 -0.08185432 -0.8839172 0.32778525 -0.9854017 -0.661804 0.874447 -0.5408007 0.264765 -0.18341964 -0.092075676 -0.2998452 0.10322791 -0.23020613 -0.2615486 0.63465655 0.50585914
D002294 0.2540867 0.3587117 0.0032365946 -0.81061816 -0.36468333 -0.7399142 0.045479417 0.9095589 0.022829676 0.37948868 0.4870886 -0.35144866 -0.10443709 0.47915453 -0.37270033 -0.616298 0.007585319 0.40204978 -0.30879515 0.6055894 -0.16572174 -0.17100458 0.033765536 0.706742 0.07250885 0.17174396 0.4698362 0.13477273 -0.2149186 -0.5009836 0.423178 0.45003355 0.95429605 0.40887785 0.493407 -0.15527004 -0.058135435 -1.4438378 0.58364546 0.5946847 0.050143585 0.040243834 0.7443548 0.7194229 -0.4280588 0.38019451 0.14100952 0.5011753 0.2718633 0.20706595
D008171 -0.13030995 0.083554514 -0.034040045 -0.15918191 -0.34410056 -0.56715566 0.5121939 -0.4355992 0.099417984 0.42062283 -0.30658597 -0.050150286 0.35504997 -0.12950559 -0.52856696 -0.19378683 0.3956881 0.10416585 0.36887264 0.27169573 -0.38221893 0.027879443 0.22169793 0.21265404 0.19752882 0.2963151 -0.23653622 0.9960586 0.0074456567 -0.092044316 0.5442192 0.23557536 0.8167617 -0.17581034 0.11087535 -0.52211154 0.14490896 -0.47067338 -0.057054926 0.43924484 -0.46035436 0.5876829 0.14864852 -0.8209208 -0.66560656 -0.09736227 -0.11495022 0.54800886 -0.3411568 0.9115943
D001145 -0.73605573 0.23564924 -0.3151772 -0.41737604 0.27628714 0.4747298 0.48180512 0.19028558 -0.09955455 -0.12700705 -0.16629833 -0.10735503 0.09499095 -0.50388867 -0.13277788 0.62655467 0.36691532 0.7580654 0.08528893 -0.457801 0.057988152 0.059526317 0.15194649 -0.21844457 -0.43639743 -0.4722784 -0.6942082 0.83540696 -0.049564853 0.47669962 0.38890576 0.98172164 0.112600885 -0.10856209 0.1902012 -0.67666703 0.0011941786 -1.1950902 -0.42601666 0.5910931 -0.34084928 0.24844187 -0.27072573 -0.12798907 -0.38105208 0.37554795 0.14280355 -0.17993869 0.13207668 0.8937775
OMIM:211750 0.2980783 0.7521469 -0.11684546 0.02292178 0.5402084 0.38309976 -0.009312459 0.42215738 -0.37250766 -0.22406882 0.3967304 -0.20942523 0.04861073 -0.14165819 0.19032688 -0.23896807 -0.1732462 0.5007175 0.100777134 -0.115060404 0.27805194 0.42889243 0.5255425 0.4632645 -0.122089505 -0.5025098 0.020367224 0.5686743 0.046597227 -0.06756199 1.0908631 0.002224757 0.2781294 -0.58646613 -0.23787065 -0.70762247 0.12812611 -0.6054248 0.31507903 0.35250917 -0.01093462 -0.46252236 0.3212387 -0.14104018 0.32543704 -0.14747289 -0.012295739 0.013409712 -0.11421263 0.10181814
D014376 0.73892146 0.08895014 -0.56865317 -0.24360922 -0.049010593 -0.75355667 0.15564522 -0.16972563 -0.40795532 0.25051036 -0.3687203 -0.1311207 -0.329773 0.59813106 -0.59967834 -0.16257246 -0.06386761 0.301636 0.19939211 0.80174106 -0.9214928 0.10221062 0.5192132 0.670274 -0.5775053 0.49080202 -0.5502116 -0.14455956 0.40542018 -0.19113934 0.81746805 0.7395547 0.13850778 -0.20038256 -0.49598932 0.16568097 0.2216155 -0.257546 0.47365066 0.18641427 -0.09710108 -0.11379708 0.06597996 -0.49253136 -0.30051562 -0.2764329 -0.50780565 -0.18369181 0.40754014 0.44376794
D004827 -0.119203135 0.5512709 -0.838747 -0.20126082 -0.21869828 1.0519382 -0.011476135 0.64789283 -0.82622397 -0.10652968 -0.62936455 -0.54101026 0.1674732 -0.038868275 0.17383164 0.07617368 -0.22954339 -0.019507524 0.41886044 -0.6447279 -0.37247512 0.19515707 0.48931745 -0.17036057 -0.40163806 0.20595625 -0.71016276 0.55180526 -0.06970564 -0.28499845 0.66985506 -0.12645702 -0.41829205 0.2830541 0.59341276 -0.30683494 -0.47276956 -0.73601353 0.115822665 0.09010593 0.15464528 0.14638586 -0.14824457 -0.07106356 -0.35893062 0.23358898 -0.3372289 -0.025630504 -0.35141602 0.5039843
D009436 0.15898168 0.4819191 -0.7638397 0.5244692 -0.63991934 0.15229496 0.10247471 0.48696214 -0.10083414 0.3337396 0.2567546 -0.4019788 0.121709414 0.5221555 -0.4038202 -0.50956833 0.44163057 -0.025083095 -0.095730014 -0.72327244 0.12110177 0.13701035 0.17923479 -0.063136324 -0.044604667 -0.763819 0.13313438 0.6074023 -0.5897992 0.17641252 0.18697105 -0.34291223 -0.6709416 0.5829001 -0.19581921 0.02107176 -0.38726097 -1.0773779 0.4684729 0.3138558 0.2109736 0.63433725 -0.22883122 -0.3682147 -0.48492828 -0.112410635 -0.3256941 -0.029191988 0.043161698 0.43090257
D012421 -0.21925421 0.110086784 -0.24112408 0.4940326 0.0603937 -0.3118539 0.6436012 0.46176454 -0.5365981 0.7452344 -0.19408348 -0.26483607 -0.09304567 -0.11744642 -0.75607 -0.028859282 0.30535582 -0.5085502 0.35743916 -0.14302231 0.8080243 0.02918635 -0.22444116 0.09820202 0.3445549 0.08677766 -0.69717264 -0.07885724 -0.22042662 0.033413775 -0.07389289 -0.02525332 0.119663104 0.3163679 -0.71483135 0.42618275 0.4429688 -1.182618 0.058909245 0.3302979 -0.29961357 0.17692013 -0.21832383 -0.067226484 -0.08834161 0.15118136 -0.13286924 -0.36480886 0.25304246 0.40075374
D011183 -0.08290621 -0.40269157 -0.48195937 0.081064746 -0.025996992 0.3694453 0.80437547 0.64386123 0.16089244 0.64973354 0.014511544 0.43090177 -0.17685263 0.40914953 -1.2652372 0.44705376 0.2306561 -0.14547524 0.7226636 0.037574712 0.30475357 -0.10723027 0.06838176 0.85309 0.30884144 0.046258476 -0.091150075 -0.07745792 -0.5231306 0.30170003 0.22242224 0.5084196 0.22150363 -0.16932277 0.12392717 -0.17985505 0.32292378 -0.94820106 -0.15211606 -0.037971552 -0.016617617 0.2622642 -0.103463516 -0.27982545 -0.3144136 0.5314553 0.3002408 0.035123248 0.06186093 -0.3146737
D010243 0.27306145 -0.1028593 -0.6937255 0.43826953 0.19038412 0.19796707 0.36492193 0.43385553 -0.5444171 0.62555915 -0.47646397 0.3299672 -0.69277865 0.67291677 -0.2720072 -0.33681536 0.339148 -0.13210227 -0.19695812 -0.44377032 0.012773563 -0.5541723 0.22017011 -0.3204687 0.0011927943 -0.26393974 -0.204519 0.31593114 0.2083788 -0.16854815 -0.15043697 -0.038602095 0.16236228 -0.31715155 0.05773441 -0.34622604 -0.65121156 -0.9127152 0.079455085 0.33789343 -0.0036512718 0.15873492 0.026516562 -0.426529 -0.5539782 0.22750995 0.30166844 -0.535793 0.04345612 0.52344555
D002908 -0.49279308 0.40554255 -0.26917282 -0.14267537 0.28758526 0.22665055 0.6014138 -0.27151078 -0.15540262 0.3601716 -0.5355459 -0.18875413 0.28119034 0.19684812 -0.3867963 -0.6946418 -0.37427917 0.5718255 0.7469452 -0.07424037 -0.3427053 0.4577024 0.25421348 0.14396913 0.2814225 0.056964178 -0.10640199 0.3138228 0.06326521 -0.060056828 0.8724954 0.46001026 0.17994009 -0.32270882 0.6022332 -0.24459088 0.61626977 -0.07932373 0.008975524 0.36493224 -0.2682398 0.1517775 0.16068977 -0.69192547 0.1695593 0.027545165 -0.6871555 0.59313965 -0.17143825 0.22271906
D001260 -0.21927492 0.12855543 -0.08925456 0.0011706341 -0.11016533 -0.35044885 0.30272517 0.33199832 0.0510394 0.12800679 0.001460339 0.34799767 -0.07365096 0.16211215 -0.18892203 -0.19852753 -0.22973345 -0.100374006 0.47892672 -0.28731307 0.09770652 -0.007394243 0.31283867 -0.16373053 -0.11535994 -0.5338213 -0.40493447 -0.24774593 0.16159458 0.2325796 0.07038902 0.14136982 0.25124913 0.059557218 0.79696906 -0.14264384 0.18409577 -0.94580936 0.21102665 0.18976112 -0.4317453 0.36257905 0.27580848 -0.026174432 0.42644373 0.032497965 -0.51841223 0.011560498 -0.024813177 0.3598979
D018805 -0.21776837 0.46179777 -0.12826757 -0.035227656 0.20426884 -0.4515126 -0.33517057 0.3293999 -0.37746835 0.0010439624 -0.5231702 0.28877673 -0.07835274 0.16590036 -0.79458374 -0.40949517 0.15752932 0.249242 0.5584042 0.20747504 0.081262715 -0.0048389006 0.4106625 0.10884014 -0.23216206 0.32706675 -0.10655773 0.0058076787 -0.71525544 0.29653925 0.51012915 0.09972552 0.18897787 -0.20493683 -0.5007249 -0.14170164 0.22615142 -0.72604483 -0.14341606 0.14651957 -0.33179265 0.14791223 -0.4459758 -0.35322282 -0.21131527 -0.10268893 0.59318435 -0.41379872 0.21005037 0.13628824
D004213 -0.073166646 0.3850971 -0.17638591 -0.25919804 0.4476302 -0.17060082 0.1589197 0.5027377 -0.1193557 0.30034152 -0.18610945 0.24795699 -0.21615554 0.3434294 -0.13247603 0.17584887 -0.31866786 0.09821994 0.15992899 0.07806233 -0.053006086 0.5843628 0.28464913 -0.8710777 -0.23986065 -0.326517 -0.60163486 0.085542165 0.18037099 -0.15638652 0.3481537 0.30256128 -0.037822537 0.33885467 0.3247417 -0.4596641 -0.15489763 -0.51217955 0.011861964 0.15614648 -0.45964026 0.21924798 0.35243464 0.29142064 0.39050937 0.32975444 -0.23964714 -0.21907811 0.31241482 0.44667563
D007333 -0.85040927 0.12538755 -0.37065977 -0.12953208 0.8367169 0.25304055 0.75445294 0.38117537 -0.42837483 0.62060523 0.54640645 -0.220066 0.53468835 0.23405947 -0.14015126 -0.5477919 -0.5983162 0.0006973542 0.6143454 -0.29947627 -0.036319774 0.521193 -0.50085294 -0.812904 -0.23908399 -0.031575847 0.13874537 0.5334818 0.48194972 -0.49744326 1.5567589 0.58372813 0.24559902 0.09910834 -0.24513209 -0.044903252 0.7750329 -0.31248707 -0.17097071 0.4047121 -0.0094625475 0.52340686 0.30206376 -1.0470396 0.14200664 0.12616721 0.8847827 -0.041877225 -0.09375072 -0.048682544
D005402 0.4500749 0.41006032 -0.30377454 0.19738078 -0.55649513 0.04947326 0.739967 0.8465324 -0.24866763 0.26568356 -0.066606015 0.14883268 -0.072797485 -0.13069128 -0.604041 -0.13243996 -0.14528309 -0.09844581 0.63552487 0.50106955 -0.16614555 -0.37288007 0.032068983 0.47583106 -0.198311 -0.09845345 0.010514122 -0.4570573 -0.2515844 0.61639583 0.02845 0.512129 -0.14671162 -0.35690087 -0.44689384 -0.1579549 0.7301492 -1.1082006 -0.1822346 0.7030596 -0.038208116 0.40163136 -0.54460853 0.11584254 -0.6772608 0.6705101 -0.21158108 -0.17396861 -0.24216989 -0.16008888
D000013 0.2283822 0.3884353 -0.81033254 -0.11173995 -0.33903638 -0.17355436 0.23366244 -0.07974457 -0.45022443 0.106094465 0.27096215 -0.121457905 -0.057063203 0.06945498 -0.32923988 -0.25062647 0.2467763 0.46236974 0.3851766 -0.32454088 0.14921595 -0.49708092 -0.19844842 0.046582587 0.07005479 0.1452111 -0.40036282 0.01462281 0.045259155 -0.108640775 0.033132043 -0.24639347 -0.029144185 -0.6779611 0.6697693 -0.034311447 0.32618293 -1.2404877 0.63284314 -0.03751011 0.14840108 -0.22337161 -0.19923717 -0.7043743 0.10690621 0.7938236 -0.0539719 -0.3825365 -0.064223595 0.33645815
D001714 0.36087322 0.22149613 -0.5480698 -1.0416983 -0.09022381 -0.26217362 0.5787812 0.482586 -0.6941373 -0.05985039 -1.1172297 0.1891133 -0.1901331 -0.27644384 0.5335515 -0.533659 -0.3563007 0.19888872 -0.057420164 -0.23006856 0.101945825 1.135171 -0.5063161 0.08765017 -0.60613585 0.22226207 -0.15774195 0.32406175 0.15555254 -0.21782601 0.84538895 0.7046968 0.058987066 -0.29978862 0.6876763 -0.79380304 0.0957091 -0.9085859 0.5617314 0.11194231 -0.2754039 -0.22098042 0.1124632 -0.2008765 -0.21500492 -0.23243041 -0.6100982 0.22972009 0.43217167 0.14212185
D003704 -0.1726969 0.5115295 -1.0962508 -0.17313072 0.20358926 0.52610976 -0.05753245 0.4549315 -0.5987598 0.586764 -0.37759584 -0.0025494418 0.39246175 0.6760457 0.3155865 -0.055994023 -0.8506352 0.35509 0.12297968 -0.21619853 -0.066501185 -0.10638483 0.428507 0.13522731 -0.56418616 -0.11642902 -0.29069832 0.6409477 -0.31966686 -0.65056777 0.2472691 0.16196615 0.23822305 -0.22328198 0.1868677 -0.695896 0.5603522 -0.09397513 0.04351141 0.5412958 -0.19154146 0.8558915 0.8526627 -0.09891881 -0.15223688 -0.2365502 -0.90620345 -0.020970775 0.45614028 0.20536608
D001327 -0.1903713 0.8132143 0.052632995 -0.6601456 0.79164284 -0.45854822 0.8572442 -0.025313543 0.0064342646 0.2296004 -0.27550837 -1.0361114 -0.41993305 0.2377831 -0.064169005 -0.6680399 -0.49362755 0.4123679 0.80040485 0.64968646 0.07735272 -0.049324933 -0.0007215619 -0.1647439 -0.09839863 -0.1456823 -0.17594709 0.2926414 0.25472826 0.6389939 1.0055856 -0.20924067 0.3611283 -0.333697 0.39331138 -0.3734429 -0.6206313 -0.7832733 0.13266587 0.16974927 0.6982965 0.21731265 -0.041681666 -0.29366547 -0.11298931 -0.19811575 -0.24548183 -0.26799408 0.28580475 0.38322467
D003327 -1.0405663 0.06941645 -0.14822443 -0.3534816 0.5931699 0.34108678 1.2336806 0.39380196 -0.42436567 0.22484131 0.06695384 -0.8148296 1.1406772 -0.078731045 -0.7066949 -0.18444435 -0.4954936 0.089588 0.8592883 -0.37672 -0.08941964 -0.17327182 0.37642846 -0.49720764 -0.23764783 -0.3996888 -0.33418053 0.4798632 -0.4011898 -0.13748287 0.31028163 1.1691854 0.31315774 -0.13283783 0.071943045 -0.0043357858 1.300766 -0.37885156 0.045447983 0.33471224 -0.23203045 0.15205105 0.9529438 -0.38562742 -0.20971422 0.124085486 -0.33561826 0.012054651 -0.05006444 0.44815287
D007251 -0.3377495 -0.570541 -0.34631315 -0.35814142 0.22184956 -0.2122114 -0.23742768 0.24204 -0.38005152 0.46922302 -0.80781627 0.12584123 -0.299107 0.5704604 -0.80638474 -0.7151476 0.08890986 0.106550746 0.766703 0.29819426 -0.30868927 0.4782861 0.74904543 -0.22875771 -0.3966533 -0.51698494 -0.13542318 0.3517478 0.01121857 0.13674839 1.1137652 0.33139983 0.74875075 0.08738369 0.05656628 0.1799101 0.29890496 0.10708649 0.14979158 -0.42993587 -0.16462675 0.16167685 -0.2474648 -0.13510054 -0.1833203 0.053799953 -0.27345833 0.060576193 0.08385694 1.1205788
D001930 -0.5086927 1.1482979 -1.0389503 0.35237595 0.2135773 -0.087375 0.015762242 0.4295305 -1.2746108 0.6970504 -0.6066339 0.2761467 0.107069254 0.38984808 0.04948783 -0.23965617 -0.15739956 0.17657383 0.7280719 -0.20890087 0.14419049 0.28769836 0.33272165 -0.6536466 -0.33765593 -0.07288089 0.20098567 0.5398374 -0.8546909 -0.4499175 -0.03427833 0.33803847 -0.7904795 0.6012533 0.2712248 -0.54369974 -0.27865213 -0.7163996 -0.17030399 0.002941327 -0.08445496 0.7514924 0.10193706 -0.40264046 -0.6353649 0.35487062 -0.327439 0.51320815 0.2751504 0.65684974
D006261 0.5697892 0.0021474606 -0.74877155 -0.15822989 0.10642762 0.28763312 -0.076510094 0.320317 -0.3350764 0.52039635 -0.38812342 -0.71811503 0.084413454 0.558756 0.4955502 -0.07746953 0.25762266 -0.2897714 0.46033213 -0.36059782 0.014355508 0.43928754 0.51359254 0.15327449 0.29310596 -0.44397035 0.44210905 0.39972687 0.003535641 0.3760583 0.33657464 0.3600408 -0.40960017 0.14965649 0.07472437 0.08759007 -0.12734178 -0.6558909 0.301052 0.37100452 -0.47680607 0.4141446 -0.46775007 0.019165967 0.003037563 0.00024372351 -0.57303286 -0.14966312 -0.21642375 0.6887453
D003967 -0.4408896 0.08216586 -0.34312907 -0.629634 0.06015412 -0.24377255 -0.21445358 0.38975352 0.23311187 0.23065872 -0.85228556 -0.48891878 -0.3322054 0.52822775 0.18295069 -0.30176947 0.44289213 -0.1893964 0.26932463 -0.023083756 -0.09933016 0.06301899 0.5387723 0.3310905 -0.3443043 0.13001974 0.11523383 -0.24073875 0.46201783 0.4096008 0.54947907 0.4173323 0.12792644 -0.02903995 -0.047326203 -0.4735355 0.9935991 -0.5955993 -0.18839638 0.54745895 0.07117617 0.024367455 -0.02745822 0.23157088 -0.03468852 -0.13072152 0.18495028 -0.09391136 -0.6355604 0.3346874
D013577 -0.034480255 0.17168549 -0.0848606 -0.0830728 0.22022332 0.21009542 0.17107472 0.42931685 -0.6208823 -0.16117957 0.12778528 0.03678548 0.12381008 0.10747856 0.08972422 -0.46092394 -0.26829675 -0.2571805 -0.3770472 -0.32527602 0.2310561 0.5883576 0.19606528 0.107202604 0.52138245 -0.003167433 -0.6153739 0.50500315 -0.1252444 0.54147243 0.29067457 -0.26442257 0.026535802 -0.67211396 -0.073725425 -0.59358984 0.06441855 -0.58665764 0.4983788 0.10580455 0.22776605 0.3624634 -0.042060588 0.023112418 0.38218737 0.2863606 0.25034863 -0.30250755 -0.37254077 0.5254338
D012559 -0.00031754008 0.89919794 -0.7644058 -0.57601994 0.30569354 -0.02995568 0.1528075 0.40216866 -1.1394686 -0.64645046 -0.5356346 0.4267336 0.19742389 0.3124152 0.48233688 -0.33434132 -0.88631976 -0.28643826 0.7112181 -0.38600513 -0.32581726 0.3921764 -0.74640363 0.28270665 -0.57658297 0.01389716 -0.29272458 1.0719585 -0.11561303 -0.51535374 0.77936757 0.79932594 -0.18610433 -0.13835326 0.59213924 -0.67289245 0.012545904 -0.25913766 0.3884068 0.015532338 -0.23031034 0.10866081 0.7253575 0.16970082 -0.5543379 0.26593992 -0.2999449 -0.61750144 -0.19536662 0.28675964
D001284 0.103199184 0.33430004 -0.587501 -0.024713181 0.118657775 0.09187408 0.15160576 0.66118723 -0.49446046 0.35870466 0.1228075 -0.0009940135 -0.3427744 0.28966343 0.036305286 0.14621545 -0.80518174 0.05458812 0.3254579 -0.22762464 0.29327086 -0.3302315 0.22185048 0.14278485 0.14554478 0.46759146 -0.30954996 0.038460948 0.9028654 -0.19919431 0.42036185 -0.3601577 0.22396493 -0.5376821 0.48324153 -0.31312013 0.07902662 -0.5906421 -0.42459798 0.23666237 0.05185169 0.8005908 -0.021870526 -0.10008102 0.021804543 -0.26208234 -0.026712827 0.3935792 0.3258865 0.3037055
D015431 0.3695917 0.226741 -0.6379883 -0.22731575 0.29577956 -0.079553604 0.4241204 0.08595953 -0.3777994 0.17424463 -0.29904556 0.26413918 -0.08591538 0.45879966 -0.4506997 -0.124438405 0.30707642 -0.18187274 -0.030163758 -0.237318 -0.0012334137 0.03914623 -0.17038803 0.006452594 0.13269931 -0.05869237 0.55121094 0.2326141 0.45973167 -0.02060722 0.9931244 0.61332107 0.12270117 -0.03100212 -0.3132986 -0.32072687 0.81319624 -0.42534062 0.068925396 0.74994576 -0.053429153 -0.24773666 0.27429384 -0.08732799 0.05901327 -0.44162542 0.23692702 0.49255806 -0.40600324 -0.09497144
D015212 0.20599183 0.45522484 0.13395411 -0.14242023 0.49754056 -0.38347882 0.15429118 0.33820745 -0.036932208 -0.20591804 -0.905752 -0.8725054 -0.44424367 0.072598964 -0.12915371 -0.3040765 -0.28084517 0.37729332 0.800334 0.33329087 -0.9353577 -0.7874094 -0.49405098 0.6464724 0.011168441 0.43155843 0.30454072 0.15686151 -0.068049654 0.5130183 1.0521865 0.4802369 -0.2175015 0.14890693 0.09739171 -0.5574341 0.59440935 -0.64772815 0.26053745 0.4886557 0.15108901 0.33315665 0.27866316 -0.8872022 0.48880437 0.08008723 0.29894796 0.044043716 -0.45674905 0.25783706
D018908 0.39886615 0.010472813 -0.17082578 -0.12333186 0.35846916 0.07213094 0.15465811 -0.037538983 -0.5522632 0.61739075 -0.21061638 0.012169334 -0.3529911 0.9082078 -0.0905759 0.026947862 0.5667007 0.061867278 0.4144311 -0.48596394 -0.14696065 -0.30896115 0.44108742 -0.24685164 0.3563202 0.17293207 -0.31096488 0.57480884 0.43587965 -0.4264299 0.25352132 -0.12335868 -0.071896665 -0.46489462 0.15620232 -0.47820267 -0.07126389 -0.56581616 -0.48020217 0.47910047 0.05015385 0.17686394 -0.18834992 0.0956693 -0.053097256 -0.004216469 -0.24350813 -0.20602128 0.007055608 0.17559367
D005221 -0.07817399 -0.0060717794 -0.25784895 -0.57143855 0.099874355 0.08658238 0.27751902 -0.13163184 -0.37242216 0.22830139 -0.23425907 -0.27736115 -0.24668427 0.8408278 0.03407825 0.1344657 0.16038375 -0.24214536 0.86013496 0.120199814 0.2799567 0.2992247 0.43023562 -0.09795004 0.31152007 -0.23556271 0.25619692 0.14712375 0.19198218 0.13023624 0.20682482 0.58303666 0.10362793 -0.19534002 0.58430433 -0.7500627 0.086454995 -0.35643172 -0.20250954 0.8013845 -0.09853587 -0.022751126 -0.26488408 0.1399095 0.36878628 -0.13722003 -0.06754765 0.21268703 -0.24872349 0.46123093
D000740 -0.64562494 0.22853087 -0.09579115 -0.39593735 -0.23346339 -0.2570322 0.13624063 0.021790696 0.0006328356 0.1487901 -0.038209107 -0.3888281 -0.4503149 0.022416223 0.19465351 -0.5681169 -0.017835042 -0.017316462 0.19910154 -0.19228801 0.38037068 0.046026275 0.7574761 0.33475816 -0.16496727 -0.035524037 0.10292047 -0.17716132 -0.2984461 0.3439596 0.7971351 -0.29495338 -0.039638083 -0.6686011 0.47746256 -0.25278014 0.48712966 -0.5124564 -0.03494602 1.1307858 -0.422403 -0.13706368 0.16415147 -0.13987894 0.14702965 -0.13390446 0.1419125 0.3271457 0.0033985537 0.5221007
D001321 0.07059588 0.97435254 -1.0287681 -0.71320385 0.20335689 0.1332695 0.109097056 0.7619975 -1.1439393 0.054047223 -0.5822304 -0.034676947 -0.52241147 -0.3388088 -0.18330014 -0.452943 -0.20772062 0.06954881 0.8955885 -0.6449153 -0.541925 0.5493368 -0.40258157 -0.11453734 -0.48200807 -0.49550352 -0.45940632 0.43156385 0.29069307 -0.4934712 0.56663215 -0.1499229 -0.19307488 -0.010517875 1.085106 -0.6792905 0.0040030004 -0.2187515 0.34850708 0.20251359 0.42968306 0.24913576 0.95896125 0.008354903 -0.17124987 0.759172 -0.14592011 -0.19796172 -0.5975854 1.0637722
D006965 0.2660669 0.0043038316 0.30773574 -0.0049093496 0.19043724 -0.26215225 0.21924324 0.19366866 0.24467383 0.760701 -0.003402206 -0.2762951 0.14779712 -0.15473704 -0.3927088 0.08482007 -0.83283633 -0.28168684 -0.16591892 -0.23076172 -0.2183598 0.26535758 0.37364143 0.007095107 -0.12191109 0.094701126 0.49510658 0.09111357 0.64047724 0.10370774 0.52606004 -0.38910314 0.4062216 0.16041528 -0.15028004 -0.2851531 0.30421376 -1.2568842 0.03343414 0.5914585 0.24658054 0.16609958 0.09795356 0.061775643 -0.038626518 0.51771814 0.5093652 0.20506628 0.27884796 0.25862336
D001172 -0.1384456 0.18725252 -0.26742598 -0.11614766 0.67090416 -0.4058698 0.5915066 -0.50893575 -0.33162603 0.7704513 -0.022469582 -0.9937978 0.04853641 0.2274837 -0.45491046 -0.016098788 -0.20883104 0.5251221 0.27200657 0.60303926 0.23100214 -0.05356802 0.0060320524 0.16761926 -0.29147947 0.1979512 0.13538213 0.12986611 -0.08386891 0.31709942 0.931132 0.2582888 0.3475782 -0.2607935 0.76095504 -0.38047752 0.11751051 -0.47192845 0.3238991 0.019869864 0.45504987 0.2963782 -0.057419807 -0.6283187 0.58584553 -0.18351588 -0.3454986 -0.1927781 0.08903502 0.89828026
D003324 -0.7669288 0.058904443 0.121891744 -0.05452079 0.6230181 0.052013543 0.610996 0.3611064 -0.36768392 0.30958894 0.38219833 -0.8753814 0.6825518 -0.05197187 -0.44513518 0.29036108 -0.36786982 0.119180106 0.4740376 0.15323563 0.23285374 -0.28343785 0.09227892 -0.55080515 -0.3841038 -0.27547535 -0.411599 0.9666267 -0.29522383 0.086009674 0.06358683 0.84888434 0.22468638 -0.24922037 -0.32870197 -0.26529863 0.7586202 -0.833186 0.09879475 0.8833562 -0.49382553 -0.020151405 0.7237647 -0.23168278 -0.31680825 0.1143071 -0.37254998 -0.15590139 0.051370844 0.11153887
D008180 0.92871374 0.43231902 0.25140595 -0.5596069 0.40737066 -0.27044794 0.69102097 -0.20517288 -0.57567173 0.0048144218 -0.11401795 -1.2103024 0.18088959 0.1954473 -0.20738728 -0.4344351 -0.40619418 0.018114787 0.90691656 0.25987667 0.82846504 -0.021521742 0.14683709 0.107260115 -0.5273608 0.17014554 -0.21088852 0.23731402 -0.20724696 0.29024318 0.9808097 0.095621176 0.29449227 -0.4962316 0.21492139 -0.05483782 -0.45057192 -0.602932 0.14676605 0.25087598 0.31368613 0.29401746 -0.08467798 -0.22671244 0.09688208 -0.67485785 -0.27413654 -0.32720226 0.13342717 0.74050826
D011900 0.31989592 0.36431903 -0.09532288 0.2177477 0.13488595 0.015973935 -0.28901237 0.42354852 -0.0058886055 0.18745697 0.2230277 -0.010263621 -0.6110321 -0.33997995 -0.3912422 -0.33107972 -0.34953907 -0.022564828 -0.19434363 0.31257683 -0.106457345 -0.016046263 0.21638662 -0.16960628 -0.15229923 0.54799163 0.091461204 0.11029779 0.4563697 0.19786766 0.2590963 0.005163241 0.17336531 0.4388731 0.23932363 -0.5027596 0.21521543 -0.78129804 0.36397246 0.24780521 -0.0077502267 0.37068698 -0.1374907 -0.01617679 -0.20432943 -0.18343532 0.037663378 -0.25151277 0.44137922 0.46410576
D003560 0.5664922 0.060163464 -0.74668205 -0.2970075 -0.28674224 -0.033969272 0.24042073 0.7863428 -0.4133181 0.37363154 0.61115575 -0.21188246 -0.013469407 -0.17673816 -0.10371406 -0.0082184775 0.19849269 -0.45814297 0.28178382 0.09468909 -0.06950432 -0.037504584 -0.26012725 1.0727178 -0.007250749 0.10178543 -0.30077094 -0.34108087 0.6966807 0.13998127 0.6970747 -0.35644338 0.36690345 0.50352126 -0.027772773 -0.12115192 0.28314927 -1.2178847 -0.061607886 -0.3447482 -0.21404058 -0.17335957 -0.30105466 -0.2444327 -0.06802027 -0.19286284 -0.32103297 -0.19438426 0.38539657 0.4239998
D011537 0.2792904 -0.102188 0.14146093 -0.24682178 0.71754456 0.04191802 -0.48844138 0.07856514 0.04093502 -0.10571325 -0.1499018 -0.22968128 -0.4934636 0.33902046 -0.14069231 -0.12661415 -0.2676136 -0.418051 0.55161697 0.33995843 0.1968178 0.70593345 0.10558474 -0.06946579 0.026334494 0.109535106 0.0848434 0.041436523 0.44136053 -0.26262382 0.10472618 0.5761 -0.014969678 0.1652891 0.67990154 -0.19011253 0.4168489 -0.8794021 0.2214876 0.32941768 -0.17111477 0.2565307 0.10213828 -0.1642309 -0.35330185 -0.21202174 -0.11336348 -0.25162303 0.11140169 0.28613034
D000038 0.014693171 0.022785565 -0.53737056 0.5352122 -0.061514307 -0.16852592 0.3135672 0.50378287 -0.61925846 0.07966633 -0.55791694 -0.2812793 0.05268568 0.10800962 -0.60945183 -0.4206306 0.28115183 0.229231 0.8007332 0.43002257 -0.52938753 -0.43824473 0.14715542 0.7241037 -0.091224566 0.17544344 0.10220701 -0.6650716 -0.050427448 0.2563796 0.527713 0.29320583 0.19595957 -0.1508956 -0.10473995 -0.37437403 0.3720623 -1.0510472 0.3158294 0.06366529 -0.4202612 0.13453798 -0.60332555 0.29229236 -0.3962751 -0.1273266 -0.16527343 -0.06756087 0.5564897 0.043752342
D002292 -0.3736551 0.48001695 -0.30133355 -0.36953324 -0.82543314 -0.095563285 1.2118794 0.72144794 0.22436902 0.25127757 0.7907553 -0.5917111 -0.6293075 0.46015358 0.047624797 -0.53842455 0.2648175 -0.28197935 0.20405304 0.12562475 -0.030181795 0.1649677 0.27374563 0.5085363 -0.56234443 0.08600038 0.5701253 0.42735314 -0.35578245 -0.31098711 0.42630905 0.65275633 0.4095467 0.4513594 -0.094005175 -0.6378858 -0.114458546 -1.2081413 -0.55289483 0.30616915 0.030657291 -0.464247 0.104890734 0.4185031 0.6522181 0.2137482 0.67857003 0.021033013 -0.04671469 0.9041666
D004890 0.6109218 0.16088882 0.50565135 -0.13114884 0.39639586 -0.28007436 0.12010056 -0.10136525 -0.12514815 0.16913553 -0.23445916 -1.1244973 0.13058893 -0.0042881016 -0.32829133 -0.63219357 -0.16133617 0.2729379 0.52647936 -0.018214794 0.5334887 0.040361106 0.08803247 -0.09209734 -0.3369635 0.3168525 0.17170312 -0.10449452 0.096697435 0.09509109 0.854702 0.2111148 -0.0020203853 -0.38024315 0.6488681 -0.2745976 -0.2908966 -0.9367171 0.17725617 0.2283619 0.2175596 0.36820352 -0.040007945 0.21494055 -0.11450878 -0.40080592 -0.30829662 -0.16588907 0.019950356 0.6482121
D006984 0.23489228 -0.09917584 -0.14255212 0.1629345 0.14393704 0.3082474 0.19847947 0.059168253 -0.4033216 0.056745294 0.721239 -0.22142103 -0.050198264 -0.08477671 -0.6396419 0.08319093 -0.795688 0.3720662 0.13753338 -0.48482147 -0.18692398 0.044967417 0.20605072 -0.4727289 -0.07314026 -0.051805906 -0.0015907336 0.4117632 0.79031616 -0.025009628 0.31098098 0.33311388 0.23877163 -0.31122127 -0.0024258438 -0.08776009 0.7610164 -0.7817227 -0.6693973 0.44786105 -0.21335627 0.07727253 -0.44367954 -0.35640946 0.026587728 0.51381534 0.23758984 0.4331031 0.27672255 0.838919
D002102 -0.24790566 -7.812465e-05 -0.30927047 -0.07992649 -0.023856595 -0.114529274 -0.110329375 0.37721315 -0.04644578 1.1149533 0.6214046 0.21447009 -0.53079456 0.53958684 -0.4207955 -0.14713638 -0.071356475 0.3969249 0.65492773 0.28213805 0.7158518 -0.28234386 -0.26973492 0.07820977 -0.49056143 -0.2294788 -0.10109462 0.023198003 -0.019954529 -0.19310984 -0.13440406 0.22668177 0.2743989 0.25933614 -0.16752203 0.05832771 0.44346184 -1.3132889 0.0056392183 -0.11794528 -0.091212556 0.42638052 -0.27702534 -0.41399217 0.5542035 0.60857797 -0.7012346 -0.48328063 -0.28879902 0.3035002
D045888 -0.10357343 -0.05703756 -1.3232609 -0.18231021 0.2764172 -0.16958871 0.3166677 0.9571266 0.2218953 0.99362725 0.17448318 -0.23681359 -0.38912243 0.0024515127 0.4103295 0.020590259 -0.21299149 -0.24832834 -0.26290876 -0.084849745 -0.21443689 0.027492218 0.26886156 -0.2993374 -0.07387274 0.43760562 -0.21479763 0.39842394 0.4728095 0.48428485 -0.38579607 0.67076135 -0.43830496 0.07820906 0.389951 -0.5400585 0.24673715 -0.6815331 -0.31168008 -0.44466007 0.25288713 0.6363633 -0.47365138 -0.4502662 -0.038942598 0.36934984 0.24875267 -0.21029912 -0.2039259 0.59332657
D004617 0.04769636 -0.071321696 0.26901016 0.12610017 -0.12928924 0.46638238 0.67659926 0.2074836 -0.26700312 0.6448387 0.026258053 -0.28359097 0.21050635 0.12014115 -0.49523434 -0.012058421 0.17830375 0.8029156 0.89489263 -0.19986807 0.3003735 -0.38138652 0.115108564 0.020009132 0.21337125 -0.18861161 -0.354712 0.08689126 -0.9296738 0.38421485 0.37377977 0.1511147 -0.22099474 0.21526954 -0.23796116 -0.73892796 0.20906484 -0.74658024 0.047907885 0.51507825 -0.6448235 -0.2719075 0.17673253 0.095971756 -0.40105438 -0.24340913 -0.04568385 -0.051653042 0.051392157 0.7393222
D008659 -0.5395724 0.03595294 -0.5785073 -0.42059788 0.98954755 0.46776116 0.18853714 0.084539175 -0.62774116 0.13876745 0.23415138 -0.13240917 0.15999526 0.02679753 -0.31504554 -0.5462583 -0.5435832 0.3976961 0.20135067 -0.86352926 -0.27962667 0.2667477 -0.16354202 -0.07037469 -0.3071813 0.21299538 0.016427228 0.52818 0.1455302 -0.47763902 0.79035735 -0.34005544 0.19524045 0.18694495 0.024035018 -0.3768884 0.41044027 -0.5284536 0.19877481 0.16250952 -0.041708913 -0.14857204 0.029601874 -0.78348345 -0.09443332 -0.29800394 0.48540238 -0.019668438 -0.6444416 -0.02419798
D006099 0.9250696 0.028356437 -0.13255067 0.04715538 0.102774195 -0.6384065 0.32181674 -0.16333261 -0.57417583 0.52413094 -0.025909737 -0.74780595 -0.78852814 -0.33080584 -0.37022132 -0.17821604 -0.09325213 -0.024289917 0.13822632 0.1394305 -0.7356556 0.10708812 0.01623983 0.3807896 -0.6968365 0.5002488 -0.0006742544 -0.17181872 0.27254426 0.3992179 0.41152778 0.24396563 0.28713846 -0.028086627 -0.13487244 -0.48755863 0.043142535 -0.44760785 0.28840598 0.28057787 -0.18337612 0.3641784 -0.3683927 -0.015732128 -0.6731976 0.17666236 -0.2821023 0.23861508 0.2683693 0.28875965
D008288 -0.13353552 -0.33900923 -0.06795277 -0.79023737 -0.21077253 -0.7337727 0.13036084 0.20609333 -0.31791204 0.22679341 -0.9747226 -0.24478814 -0.2846436 0.34225103 0.13352853 -0.8197253 -0.33046603 -0.34116507 0.24218471 -0.5231592 -0.030695967 0.29237366 0.25701448 0.013295035 -0.8588544 0.4035501 -0.48255324 0.0028288867 -0.26929426 -0.20452687 1.2963698 0.28392893 -0.30148673 -0.17304476 0.58524466 0.46653932 0.19090831 -0.43634734 -0.03643514 -0.09104789 -0.53206265 -0.62767375 -0.5556552 -0.2916198 -0.17317803 -0.42281267 -0.2684038 -0.2715401 -0.09146199 0.81986386
D014839 0.15437613 0.11928566 -0.43621778 -0.7094616 0.08900891 0.11285996 -0.1961155 0.34828243 -0.28746337 0.13294242 -0.5149184 0.035526298 -0.47742012 0.3159023 -0.21219864 0.12355037 0.72102857 -0.48848554 0.32399184 -0.44542104 0.42684057 0.20770182 0.57310224 0.3657674 0.3796983 0.14305654 0.01897865 0.0071907877 0.21101788 0.19661175 0.34159836 0.58212066 -0.2649302 0.31719497 -0.13207735 0.01641294 0.5527838 -0.64851636 0.24102533 0.68450004 -0.24846238 0.38953874 0.012411904 0.45670086 -0.3215702 -0.33515042 0.26448685 -0.28765595 -0.495399 0.00703793
D019966 0.21050693 -0.3353631 -0.6750687 -0.48928824 -0.10999508 -0.29693985 0.29203635 -0.13533847 -1.373002 0.05704298 -0.77367634 0.51554507 -0.08958406 0.06629172 0.23847148 -0.35143042 0.029461877 0.13963473 0.775711 -0.32199684 0.070202716 0.7217831 -0.28334057 -0.18908598 -0.37366876 -0.05957019 -0.6095307 0.28822604 -0.45790347 -0.046195373 0.70926064 0.86729395 -0.116933234 0.056043494 -0.21800497 -0.5275409 -0.08661779 -0.660306 0.658896 0.39559078 -0.41931894 0.57443494 0.53352183 -0.5489125 0.09522115 0.4317663 -0.97047865 -0.20723715 -0.20403855 -0.51677674
D002386 -0.35721293 0.33517304 -1.021078 0.34654334 0.8352313 -0.6054359 0.33839956 0.46071982 0.5925632 0.17027324 0.3853189 -0.38589868 -0.6265041 0.18856543 -0.6565421 0.10272075 0.12709722 0.42037252 0.08264932 -1.1905466 0.43806222 0.23530428 0.32926366 0.3642958 0.15291868 0.2946321 -0.37306553 0.4139827 0.08745996 -0.2526299 0.8406712 0.03909243 0.4545829 -0.3584711 0.82385373 -0.019963969 0.06620196 -0.7353829 -0.007160416 -0.34522438 0.1494034 0.39658496 0.54826516 -0.16501716 -0.8056696 0.33402678 -0.708234 0.19321571 0.15669255 -0.0073891515
D006949 -0.4152839 -0.08693529 -0.07610932 -0.03610844 0.8374556 0.55611086 0.85205466 0.20793143 -0.41369644 0.50553864 0.4474558 -0.43507633 0.26926997 -0.14158751 -0.18525535 -0.19643348 -0.4382978 -0.14742528 0.6640118 -0.40674052 0.31638056 -0.08850041 0.19206463 -0.10296869 -0.43900546 -0.027148513 0.49955556 0.64407283 0.28709865 -0.43927655 0.91275066 0.85063314 0.009107084 -0.16343503 -0.46433312 -0.26770338 0.5605246 -0.35333872 0.31594756 0.5500658 -0.16300987 0.27171552 0.6298643 -0.59757906 -0.2008633 -0.18541805 0.01367822 0.011422969 -0.24521169 0.07199042
D008607 0.14906195 0.15577951 -1.3666296 -0.47705638 0.37257305 0.46880364 -0.01568802 0.4207175 -0.71801466 -0.66477835 0.015234694 0.2442185 -0.33152178 -0.24992147 -0.31759036 -0.14299184 -0.043962836 -0.15900156 0.60850096 -0.9545012 -0.08912498 -0.028740559 0.19295986 0.12670045 -0.52225983 0.20028397 -0.6090676 0.3507406 0.23922843 -0.5000539 0.1743542 -0.6815695 0.044361707 -0.52258736 0.64054906 0.044562317 0.14352036 -0.6579079 0.5364566 0.29979804 0.3214323 0.18409543 0.7010897 0.009194421 -0.17669359 0.55295354 -0.017671367 -0.031552102 -0.006176277 0.47514817
D013981 0.35185507 -0.02764282 0.014812308 -0.28390446 0.59194374 -0.16601963 0.6036801 0.11889215 -0.65051675 -0.794152 0.0018259148 0.09741053 -0.28546178 -0.07722719 0.0084224595 -0.41161284 -0.112260744 -0.41822067 0.22485675 -0.13593066 0.14689593 0.6154541 0.07962862 0.2762564 0.14435612 0.13303024 -0.4757133 0.4181419 -0.2722921 -0.700445 0.2883732 -0.6849284 -0.13295017 -0.16248886 0.17563623 -1.0156692 0.18863064 -0.5684539 0.71417594 0.1542468 -0.1758571 0.34509853 0.54334235 -0.31823272 0.13674629 0.39505923 -0.16736619 -0.51065665 -0.31918496 0.6654269
D018450 -0.014044502 0.05725929 -0.17988642 -0.36647543 -0.2935341 -0.06607619 0.27546322 0.22814125 0.2884327 0.18762416 0.32388383 -0.4553714 -0.41649485 0.37172186 0.09016415 -0.27635378 -0.4822585 -0.08905385 0.6027935 0.15176326 -0.2981752 -0.20266394 0.30276027 -0.00305873 0.23835714 -0.16437005 -0.18127589 0.2147999 0.14054553 -0.3111402 0.3360439 0.3885919 0.73272926 0.17491312 0.27166578 -1.0353899 0.29976678 -0.42281923 0.036455475 0.42321086 0.10030794 0.33192495 0.04805969 -0.52386683 0.34716412 -0.6511784 -0.26262328 0.16701712 0.40151522 0.11479459
D013610 -0.013665396 -0.23980066 -0.5531489 -0.5181412 0.39133868 0.278463 0.40461397 -0.08082464 -0.14095065 -0.28014535 -0.09272854 -0.03216879 -0.036048915 -0.2741547 -0.41526186 0.15035747 0.36806515 0.22797076 -0.019016786 -0.3693451 0.099338904 0.4865216 0.17436364 -0.66872483 -0.25571898 -0.3803087 -0.7893144 0.7313573 -0.07622344 0.41864467 0.22289199 1.1501607 -0.15087919 0.029426899 -0.037745014 -0.5090656 0.19268078 -1.166676 -0.6459702 0.30056903 -0.6560599 0.29081297 -0.2131067 0.14760055 -0.56596476 0.12090968 0.5247829 -0.71104 0.09327345 0.8600571
D009422 0.21363474 0.58045214 -0.62444097 -0.42967668 0.29763103 0.4348422 -0.11919222 0.45832226 -0.593023 0.22919716 -0.70518315 -0.002753549 -0.00398228 0.3186991 0.26372793 -0.95215064 -0.26529762 0.0572804 0.115173146 -0.43069977 -0.081488 -0.10540885 0.3148349 0.020469287 0.05779758 -0.083212554 -0.6648244 0.88333607 -0.35131228 -0.4181649 -0.095801026 -0.035738975 0.01763346 -0.04586148 0.22500661 -0.5056144 -0.16817713 -0.5640814 -0.15695767 0.12734862 0.64736223 0.4705377 0.021794332 -0.39117467 -0.311879 -0.21863197 -0.22396052 0.08554148 -0.4690088 0.22772731
C536726 -0.0072318483 0.122037746 -0.19536805 -0.17438912 -0.007917078 -0.10712057 0.104752935 0.25035757 -0.034907516 0.19468321 -0.15975393 0.23470066 -0.24679148 0.2591771 -0.3484378 -0.30512935 -0.0466782 -0.17390957 0.22617042 -0.25490388 0.084358186 0.2533462 0.10584041 -0.0629878 0.10661743 -0.13885443 -0.34782284 0.07207369 0.119238235 -0.043210637 0.17986643 0.2789981 0.077156715 0.15085834 0.2743892 -0.27097207 0.2495778 -0.43608338 0.31653082 0.18086755 -0.10492881 0.20443037 0.18814789 -0.1545304 0.1928746 0.19245559 -0.08236991 -0.16933188 0.12012428 0.19976762
D006526 -0.35662863 -0.53850764 -0.10417423 -0.5832739 0.115777455 -0.6160983 0.32001963 -0.5156745 -0.5179527 -0.27198163 -0.37910914 -0.5732293 -0.86114323 0.07734984 0.24906899 -1.5065849 -0.00014657264 0.3988906 0.34839815 0.74615157 0.061816413 0.60118085 0.19330028 0.020603385 -1.0495958 -0.6674953 -0.16602127 0.5028388 -0.038784854 -0.6161601 0.88890266 0.74063385 0.14753383 0.15862375 -0.27337942 -0.12666826 0.008664008 -1.4951541 -0.4807371 0.4157575 0.18629792 0.1425257 0.4500881 -0.67025465 0.5892409 0.10994279 0.237971 0.7485813 0.13319913 -0.3410628
D020246 0.42262802 -0.116074055 0.46150032 0.7026808 -0.08849698 0.37684417 1.0192091 -0.08024941 -0.40299615 0.5296974 -0.2660565 0.14578748 -0.06903692 0.6572324 -0.3510165 -0.40564916 -0.27134305 0.38179603 1.0801442 -0.30170575 0.7128208 -0.19153029 0.17759636 0.13056274 0.15632322 0.10460207 -0.38149562 0.2712665 -0.9675511 0.36255231 0.5728061 0.27864552 -0.4871032 0.24565026 -0.339007 -0.40613607 0.6397483 -1.0560527 0.5617328 0.32075554 -0.084006935 -0.09574486 0.13142776 0.14578308 -0.21899734 0.056962844 0.56362903 -0.3510253 -0.46495655 0.71719694
OMIM:191181 0.004328412 0.0023628413 -0.18008108 -0.26338807 -0.039957315 -0.058232464 0.08910914 0.21000364 0.025996007 0.17954253 -0.20186685 0.18234691 -0.14050068 0.25445145 -0.33165184 -0.36687425 -0.113436565 -0.0982849 0.25279567 -0.2607224 0.032062344 0.30426958 0.13644662 -0.1066669 0.08830734 -0.14470284 -0.33640963 0.052688677 0.100041255 -0.0047607473 0.2993124 0.29294887 0.2017032 0.2091682 0.1914328 -0.13658386 0.2734096 -0.44805744 0.3243238 0.09256208 -0.11110353 0.13546538 0.17854743 -0.23126769 0.17484513 0.13491344 -0.13760005 -0.19694719 0.016642334 0.25517267
D006509 -0.46856943 -0.5511473 0.08726652 -0.31569162 -0.14605959 -0.7979739 0.1486331 -0.15440314 -0.4476783 0.01738636 0.23313457 -0.38402063 -0.657632 0.21829095 0.013741484 -1.72515 -0.2016861 0.052822888 0.11761363 0.71021837 0.1501086 0.5264314 0.54819804 0.22282201 -0.8914276 -0.9420536 -0.7073404 0.32411194 0.2336095 -0.06653475 1.4220572 0.79691416 -0.13418366 0.2919264 0.03441221 -0.24560969 0.26264814 -1.2580211 -0.009366627 -0.25612774 0.46949038 0.0499594 -0.07636131 -0.6465756 0.3637915 0.4458062 0.24400796 0.44180486 -0.47813466 -0.38690966
D010038 0.2765298 -0.06756148 -0.38045347 -0.55733526 0.10612003 0.17682053 0.18646997 -0.07662139 0.42733228 0.33316576 0.032939624 -0.35273513 -0.24276699 0.088406846 -0.49382827 -0.391701 -0.6135304 0.072462924 0.22075345 -0.087690175 -0.32330608 -0.17808507 -0.009898235 0.58819175 0.35092357 0.076917194 -0.26667005 0.5558998 -0.12869452 -0.02035354 0.23457083 0.112678364 0.49391353 0.16913402 0.08856206 -0.59284645 0.3735307 -0.21763459 0.5235327 0.31151536 0.05629649 0.18516612 -0.07826993 -0.07857981 -0.003387582 -0.13820386 -0.20402344 -0.3595282 0.09226253 -0.13407631
D015430 0.11529668 0.609373 -0.5865984 -0.37651128 0.23884356 0.090536736 0.05862359 0.12709828 -0.5022768 -0.03364647 -0.1905055 0.42656866 0.22193748 0.2970643 -0.2043715 -0.25034115 0.053319808 -0.49396083 0.15831439 -0.6538703 0.16696633 0.29040483 -0.5070438 -0.25298887 -0.2754494 -0.17861342 0.2924712 0.19712362 0.73093194 -0.00379567 1.1353688 0.41993418 0.14749163 0.20186348 0.20879683 -0.21227197 1.0219127 -0.63632154 0.1229966 0.36693898 -0.34347263 -0.20119967 0.36561117 -0.435569 -0.22883543 -0.18816724 0.42408836 0.38293955 -0.18750134 0.16982342
D006547 0.11661943 0.101705655 -0.5770605 0.07535012 -0.13656373 0.17868996 -0.060246978 0.07253066 -0.8889087 1.0094094 0.20135422 0.4047336 -0.06429833 -0.60446906 -0.4425306 0.16459577 0.3996163 0.04335803 0.8385468 -0.2990184 -0.28419855 -0.52968913 -0.15355323 0.9243611 0.3564221 0.10566557 -0.114357874 0.4372552 -0.25336927 0.12350559 0.014947042 0.4685714 -0.42042142 -0.29661572 0.030330218 0.5113552 0.79329 -1.3843478 -0.24457894 -0.43980718 0.13540526 0.6537673 -0.07604916 -0.031913817 0.032769646 0.3013984 0.10937688 0.24734472 -0.56372625 0.078392684
D006323 -0.82609534 0.15758242 -0.5473834 -0.40751234 0.4647346 0.21822336 -0.05103597 -0.118359596 -0.4143444 0.20953889 -0.05593374 0.34006086 0.021670708 -0.21117137 -0.65797883 0.23401378 0.1676861 0.53492874 0.42205712 -0.37840018 0.078798555 0.03103503 0.48674697 -0.44784862 -0.55960554 -0.04002826 -0.51451933 0.6980608 -0.45660624 0.26818192 -0.16664754 0.799936 -0.17897543 0.28017685 -0.59681106 -0.52117765 -0.29332036 -1.4499272 -0.21935552 -0.09639066 -0.5850429 -0.071799524 0.27604827 0.18743402 -0.34751135 0.073992364 -0.2451667 -0.1975874 0.2932849 1.0173936
D002471 -0.05351522 0.62361443 -0.06610441 -0.7164145 0.019866208 -0.37355253 0.20222916 0.7460266 0.6017464 0.69601035 0.49670744 0.007393939 -0.15167342 0.18708919 -0.12073937 -0.2501014 -0.5956192 -0.3422266 0.23464683 0.03544791 -0.823861 -0.15437047 0.32227805 -0.17935473 -0.42610952 -0.051132776 -0.43396696 -0.05514074 -0.11240144 -0.08414441 0.75716525 -0.06504715 0.5307672 1.0954386 0.38545775 -0.791655 -0.16171561 -0.6256035 0.47335938 0.8709611 0.08776681 0.28620252 0.2835453 -0.039493546 0.7021731 0.8775012 0.50220007 0.50344664 0.012844463 0.33161047
D002869 0.073295124 0.8804799 -0.39778116 -0.20591438 -0.48318133 -0.19849397 0.3715673 0.17336649 0.29923874 0.39775422 0.37571165 -0.08629558 -0.38032657 -0.6815027 0.24708366 -0.4486185 0.030483043 -0.5909962 0.3764396 -0.42290875 -0.57425946 0.2244719 0.134411 -0.47476065 -0.119853176 -0.3333931 -0.6198514 0.024912123 -0.42795515 -0.41118306 0.7721076 -0.4478098 0.13202606 -0.4219341 0.6421155 -0.308312 0.325283 -1.3188204 1.0213014 0.6109208 0.22123507 0.10439176 0.51123345 0.041109007 0.79653406 0.4060269 0.55273443 0.17543837 0.15278587 0.5558398
D050177 -0.32404262 0.30565044 -0.364862 -0.09455116 0.3466226 0.6038935 0.5091601 0.031147996 -0.4209198 0.7429792 0.123213135 0.25670236 0.279025 0.22302759 -0.7025689 -0.72003126 -0.1752273 0.20396517 0.67350644 -0.6042994 -0.017174022 0.5642917 -0.482525 -0.0504103 0.30858403 -0.14347206 0.19514327 0.2956298 0.54727715 -0.54575145 0.99729973 0.9840576 0.08591831 -0.110554494 0.14774026 0.30793187 1.0093136 -0.09675758 0.5071698 0.59079623 -0.29620245 -0.04897101 0.46370417 -0.76454574 0.14883628 0.16304705 0.45390588 -0.037173986 -0.44314045 0.26159188
D003924 -0.27886814 0.36770457 -0.22967626 -0.2732853 0.1434391 0.024965368 0.3403234 0.5146824 0.24426022 0.065092 0.08369294 0.07287961 0.11276659 0.2330374 -0.28910196 -0.5789312 -0.08270725 0.046935707 0.23572914 -0.12097238 -0.14037393 0.21623062 0.18026945 -0.35744667 -0.12656441 -0.22184713 -0.058425896 0.21141835 0.26035792 -0.041457806 0.50662506 0.31429672 0.1287435 0.13107027 0.1945567 -0.3000613 0.2132545 -0.5588947 0.29225168 -0.039635092 -0.28058696 0.028212696 0.16360249 -0.30616662 0.16540277 -0.04528847 -0.32292172 -0.1303698 0.10446331 -0.013930065
D010003 -0.30523452 -0.3261528 -0.7667148 0.48142388 0.47567755 -0.17133206 0.53378737 -0.33108664 -0.8673977 0.8202472 -0.01366222 -0.3864081 0.13070762 0.26052573 -0.42486292 -0.10410116 0.028891124 0.34157658 0.04004812 -0.030881464 0.6524126 -0.4535784 -0.29241115 0.6036797 -0.11220032 0.34010038 0.17298484 0.6578842 0.28961647 -0.112063795 0.8705265 0.41084802 0.16007838 0.26312122 1.1744574 -0.21666823 0.5263669 -0.5526328 -0.061277747 -0.017800422 0.30373445 -0.18764898 0.14528318 -0.7613934 1.0311897 0.39202902 -0.36793512 -0.4366314 -0.4503527 0.9201489
D017202 -0.55126226 0.09237111 -0.21639201 -0.3173274 0.7097439 0.10411054 0.66130894 -0.09820565 -0.4800327 -0.09222939 0.34982333 -0.62218446 0.3529635 -0.31468368 -0.84480655 -0.03614693 -0.44348085 -0.06684347 0.14234665 -0.1609763 0.1756903 -0.7370732 0.5217301 -0.6158062 -0.23555797 -0.014694869 -0.5784098 1.049228 -0.6992927 0.10568277 0.04011326 1.3822278 0.19827746 -0.08809168 -0.23175512 0.17699654 0.4766476 -0.7386017 -0.22352342 0.4986195 -0.4978171 0.38448116 0.3253631 -0.45587963 -0.0011016636 0.34640813 -0.028399574 0.09273263 -0.50015247 0.17609617
D009103 0.4201339 0.4194709 -0.8054889 -0.038155306 0.6410827 0.14324671 0.5542708 0.2562939 -0.45215887 0.75072 -0.7464751 -0.8751913 -0.44739023 0.7872947 0.19049063 -0.3128335 -0.59264076 0.06107232 1.023026 0.14100517 -0.15146379 -0.058679778 0.31253728 -0.2366693 -0.6363844 -0.10784542 -0.4785537 0.94762766 -0.05716049 0.39323178 -0.083359115 0.15018328 0.2792551 0.56965554 0.7404443 -0.7891845 -0.3014804 -0.04604045 -0.2557753 0.35670167 0.8925785 0.040376984 0.13666354 -0.19596599 -0.20730074 -0.22021767 -0.26070714 -0.096625134 -0.094705634 -0.2437373
D003110 -0.54319465 0.5475228 -0.04263701 -0.19078569 0.5394908 -0.38462538 0.3922458 0.72556293 0.4693515 0.22902097 0.032480482 -0.09723067 -0.22618464 0.12081421 -0.21559842 -0.52856994 -0.0138115715 0.4787266 0.15218335 -0.097501576 -1.0590123 -0.40276682 0.28444234 0.7416063 0.13160993 -0.18339351 0.050335303 -0.17872386 -0.42058253 0.026801981 0.907689 0.85219026 0.2698292 0.7896893 0.4174906 -0.4675424 0.48662207 -0.9988626 -0.10996194 0.23651867 -0.24769457 -0.007817314 0.42646396 0.3411777 0.582209 0.49814844 0.33608425 0.38889045 -0.3333663 0.4017632
D008881 0.41835785 -0.10728805 -0.825799 -0.24906802 0.6193133 0.61678785 0.12263683 0.64916104 -0.8268487 0.24525975 -0.2802558 -0.7104827 0.10216898 0.102209136 0.76815766 -0.14729217 -0.33507812 0.097500555 0.86375266 -0.3627298 -0.016599305 0.37 0.062621765 0.22356762 0.54607487 -0.3271307 -0.19895263 0.7345896 0.23877706 0.5238508 0.2321849 0.53224695 -0.36413562 0.3883207 0.40710187 0.48348188 -0.24737604 -0.57585627 0.14884849 0.33734447 -0.59325343 0.8090785 0.08003579 -0.5091026 0.07026198 -0.15319617 -0.40829325 -0.36238235 -0.8488813 1.130333
D000437 -0.30751842 0.11454864 -0.50171715 -0.6376089 -0.20667058 -0.14750037 0.76101035 0.16420914 -1.2177963 -0.21401715 -0.12867267 0.2354624 0.24853873 0.07871769 0.21835689 -0.18373667 0.10757941 0.4731757 0.5734542 0.2809845 0.14072628 0.0678314 -0.20461439 0.16744338 -0.5662308 -0.044788033 -0.56500524 -0.14059073 -0.059967477 -0.49452162 0.89028627 0.5960847 -0.14932741 -0.14680849 0.19280687 -0.514033 -0.14333463 -0.7227022 0.35116926 0.5294331 -0.5990786 0.88276917 -0.037205264 -0.18427648 -0.24663551 0.081191175 -0.5852516 0.41428727 -0.365172 -0.6574077
D007951 -0.080287084 0.11517189 0.29778177 -0.48260325 0.3255951 -0.74069196 0.1347743 0.82942986 -0.16462405 0.8089321 0.26196826 -0.43918568 -0.6494586 -0.13799249 0.64915633 -0.030631421 0.6297695 -0.016385403 0.68185484 -0.43957865 -0.5423566 0.6181415 0.42440188 -0.20612302 -0.14403051 -0.08212128 -0.28688288 0.73376125 -1.1676992 0.1512095 0.5953514 0.013009395 0.4755751 -0.20532657 0.49252632 -0.07813992 0.41675553 -0.70183307 0.9434281 0.7699007 0.28965235 -0.30538067 0.06869543 0.22806945 0.17570399 -0.18224126 0.9737581 -0.1183277 0.4603365 0.3456852
D001932 -0.19011153 0.78025466 -0.542554 0.037749704 -0.22253159 0.23227239 0.17205402 0.9162919 -0.09347877 0.44661626 0.18657729 -0.059315257 0.25315094 0.7403438 0.37049899 -0.30479077 0.0073602884 -0.3368067 0.64384043 -0.71311474 -0.94869125 -0.31822014 0.4147362 0.16763507 -0.09474133 -0.5286673 0.08026756 0.33050847 -0.7193404 -0.064517766 0.84017336 0.33793378 -0.33970368 1.0868355 0.38919255 -0.65887684 -0.39220884 -0.85204536 0.47826418 0.08959576 0.49844795 0.21037987 0.103796 0.19142048 -0.30894712 0.09107489 -0.29537162 0.55512655 0.26195478 0.6598978
D003092 -0.43628693 0.37211603 -0.15083526 -0.09074961 0.28688577 -0.63263196 -0.14322451 0.5505182 0.5024109 0.40015098 -1.3257599 -0.58959234 -0.6422717 -0.3499425 0.13438489 -0.22421396 -0.2783373 0.47401345 0.729893 -0.14142388 -0.63040614 -0.88716066 -0.74664575 0.43118122 0.02367722 0.24536806 0.66563976 -0.026803369 -0.27510396 0.6938152 1.0396986 0.4327796 -0.06620122 -0.21331245 -0.11104369 -0.5129938 0.38526508 -1.0748302 -0.10200267 0.3149748 -0.06172929 0.5415251 0.032938104 -0.5406498 0.1613507 0.13096352 0.6622787 0.03065007 -0.34962958 0.7110975
D003093 0.18549728 0.48710647 0.12436448 -0.2199675 0.46098042 -0.51968503 0.12530786 0.5693982 0.16783595 -0.088990845 -1.0292689 -1.1341534 -0.84825367 0.15334482 0.04796675 -0.13196722 -0.22251981 0.78395176 0.6786381 0.505452 -0.8328011 -1.1576433 -0.5383871 0.77651095 -0.07663239 0.41818398 0.3821348 0.15970324 -0.16936198 0.48703712 1.2456806 0.58329815 -0.26097423 -0.14231834 0.24199842 -0.5031449 0.67358404 -0.8883956 0.36383215 0.24958237 -0.24462444 0.37845263 0.49206725 -0.646544 0.42254096 0.6042237 0.3551031 0.28701988 -0.21484607 0.42327628
D001424 -0.41791016 -0.050228238 -0.15100513 -0.22175421 -0.0226636 -0.93483937 0.100045346 0.16151458 -0.24880101 0.24890798 -0.62870526 0.030985102 0.10602595 -0.04610686 -0.2601022 -0.8817964 -0.40777454 0.34529698 0.713699 0.41176906 -0.40378177 0.3018096 0.50481856 0.18976621 -0.76137894 0.267293 0.16404784 -0.28852522 -0.07014306 0.2653557 0.64697987 0.028409041 0.7311802 -0.2643971 0.11622282 -0.23871721 0.4397113 -0.70246595 0.4565771 -0.3092143 -0.23995486 0.7314951 -0.48876175 -0.32041156 -0.3599466 -0.28736582 0.08325014 -0.2311361 0.18333706 0.56451744
D034381 0.08236888 0.36310974 -1.0523587 0.06323755 0.10999215 -0.059605096 -0.09519927 0.4549832 0.06991576 0.23914373 0.61097026 -0.24578466 -0.3271581 0.20580575 -0.18619318 -0.70037264 0.049080864 -0.4724894 0.5231558 -0.33988634 -0.06514947 -0.32044795 0.8067493 0.12458028 -0.35492083 -0.14885236 -0.11810009 0.34783608 0.34575364 -0.19285049 0.3715147 0.123760745 0.19049908 -0.42519262 0.40861887 0.048496377 -0.33602142 -0.11431315 0.11574913 0.3980876 0.14097802 0.68855757 0.08205503 -0.3414158 -0.7150805 0.9561734 -0.48710746 -0.9254243 -0.5882558 0.5130391
D010212 0.32759628 -0.51279837 0.059678327 -0.3713526 -0.69312704 -0.3104941 -0.08342124 0.92784715 -0.21175244 0.49363297 0.020621054 -0.35423633 -0.23425353 0.46166715 -0.4484601 -1.2017006 -0.81184536 -0.6748105 0.19461711 0.1575008 -0.2244988 0.07679535 0.14343464 0.16257973 0.092533976 0.30131912 0.03501153 0.21091725 0.22159387 -0.34773558 0.7737175 0.16522382 0.5601981 0.25395885 0.4219927 0.6419594 0.07651348 -1.1235881 0.8537206 -0.071696095 0.38355598 -0.06303788 0.32329345 0.4169051 -0.12777308 0.81552035 -0.0011527968 0.68280685 0.16724883 0.017660202
D001724 0.09491425 0.9995394 -0.8982502 -0.63598496 0.29504865 -0.2124798 -0.4009031 0.34237024 -0.082147375 0.12647101 -0.42133483 0.16858646 0.11311556 -0.17695278 -0.7309915 -0.13312967 0.26745403 0.088253416 1.202674 -0.38953382 0.41505173 -0.019293759 0.41702932 -0.19913429 -0.7042575 -0.33671287 -0.088890806 -0.021987353 0.09487909 0.17798074 0.7261143 -0.17534374 -0.11580362 -0.2750463 0.0045281067 0.4923118 0.60609555 -0.53277445 0.5011888 0.32862562 -0.36979303 -0.62277645 0.7738023 -1.0626011 -0.5365588 0.6134472 0.11207589 0.24483469 0.117736526 0.31935164
D012507 1.1558983 -0.15796761 -0.19624692 -0.21539353 0.45452717 -0.4969782 0.66297734 -0.4665224 -0.49905607 0.21110801 0.052086104 -0.31873223 -0.5300346 0.02264574 -0.44628534 0.29291815 -0.011985023 -0.05071629 0.20385136 -0.10955431 -0.8083592 0.4716991 -0.13264889 -0.059908353 -0.42647085 0.18446913 -0.4813806 0.05354786 0.10068986 0.20233504 0.458983 0.5761088 0.5618825 -0.018632399 -0.038661044 -0.48318946 -0.34139946 -0.17546886 0.16479936 0.43723598 -0.10987623 0.42522252 -0.06877514 -0.32940415 -0.59503305 -0.057550427 -0.1259394 -0.0260633 0.05260529 0.54213434
D009325 0.08784408 0.029811854 -0.400756 -0.7687541 0.19298178 0.27287847 -0.016511073 0.25977623 -0.17802337 0.26973563 -0.36338794 -0.23852599 -0.31596777 0.47526413 0.11125272 0.14643829 0.67041326 -0.5969957 0.5971703 -0.19666927 0.4553188 0.28984612 0.68537545 0.41938692 0.33965603 0.016718017 0.15332796 -0.00039222924 0.10424789 0.13436377 0.28165215 0.8890221 -0.0103360545 0.24959917 0.22890994 -0.124997474 0.43253905 -0.6150347 0.11407335 0.5819685 -0.3181239 0.40797484 -0.029282933 0.35377097 -0.1945237 -0.4696494 0.15705559 -0.2544081 -0.32943407 0.04291254
D001281 -0.02777305 0.10573177 -0.069283135 -0.4229513 0.6027784 0.80537385 0.5256011 0.34004813 -0.47806564 0.1500441 0.1727582 -0.017159503 0.42279613 -0.62857133 0.21380259 0.49587142 0.0766134 0.84379286 0.8382961 0.098855644 0.43226054 -0.22838421 -0.42279616 0.25702038 -0.296883 -0.4674097 -0.20187041 0.93450314 -1.0442646 0.21342427 0.21420042 0.9452541 0.5767936 -0.26604447 0.004396954 0.0060301735 0.362823 -1.1800227 -0.7223649 0.9901321 -0.7094898 0.045966342 0.3131335 0.074845985 -0.9912896 -0.1732684 -0.040695984 -0.22930028 0.75971 0.4342803
D009205 0.18916306 -0.35333264 -0.13515665 -0.050246947 0.030394573 -0.5162158 0.038112406 -0.033144664 -0.9295709 -0.31582615 -0.38732082 -0.55033314 0.054523543 -0.06531877 -0.8739596 -0.42464998 0.23927139 0.5900399 0.30869222 -0.31262058 -0.12038692 -0.2317329 0.16578168 -0.138382 -0.31090084 -0.32980382 -0.66934526 0.44761887 -0.25073618 0.74447584 0.63184565 0.70343155 0.15705732 -0.33227813 -0.39501917 -0.24275446 0.32360658 -0.35292983 -0.27941632 0.45875624 -0.05200588 0.14144962 -0.56743217 0.20922361 0.028530769 0.0039572385 -0.12911214 -0.3047748 0.8149282 0.56487817
D007246 0.22898263 0.5600198 -1.0646151 0.061995607 0.022388157 -0.79751253 0.45658386 -0.41792533 0.11256356 0.06339907 -0.06730005 -0.47233856 0.26170522 -0.084228836 -0.00064811046 -0.569664 -0.5385135 -0.13968022 1.1516112 -0.23449329 -0.17643301 0.45699298 0.1220605 0.12858039 0.14813173 0.0307682 -0.08387089 0.33644044 0.43157732 -0.16208337 0.6138646 -0.46508154 0.08568475 0.3960435 0.026477238 0.17412376 0.49201533 -0.8975966 0.31889772 -0.2480478 -0.48513973 -0.04596526 0.9087411 -0.06783289 0.30825764 0.5456672 0.5348319 -0.3298367 -0.003959103 0.14984024
D010024 -0.41777173 0.16935119 -0.060495008 -0.22816819 0.56613034 -0.017901627 0.6982844 -0.8140812 -0.49964535 0.7088083 0.3303805 -0.11161863 0.20317139 0.9204036 -0.35666367 0.07067017 -0.2997694 0.22349425 0.49172017 -0.5387783 -0.09997405 -0.031870894 -0.07005713 0.38612795 -0.012597201 0.3731845 0.08515536 -0.110645145 0.13803281 0.042737648 0.41622683 -0.21500625 0.2358731 0.23957516 0.7311688 -0.28730538 0.5312176 -0.31011894 0.32394028 0.8288706 -0.0055360417 0.29481068 0.32175672 -0.96297497 -0.0018940826 0.27316156 -0.18557167 -0.32412738 -0.10913748 0.3509652
D013921 -0.23867184 -0.065899625 0.37966493 -0.57103306 -0.24262723 -0.44039693 -0.0024838108 -0.10603944 -0.20348753 0.082777545 -0.24197517 -0.6033104 -0.79379964 0.4903957 -0.011974513 -0.5729511 -0.05808679 -0.4078225 0.3211153 -0.4162735 0.725741 0.3070333 0.7016463 0.23059525 0.16589245 -0.12595862 -0.21696891 -0.0004153587 -1.1617869 0.3802825 0.7298153 0.10829614 -0.15288068 -0.116969705 -0.17209911 -0.2762437 0.37273666 -0.44120306 -0.16734886 0.71734893 0.5649602 -0.021378806 0.06908417 0.07717513 -0.39668837 -0.14190571 0.4659164 -0.2978654 0.056104977 0.5449987
D019964 -0.018253215 0.22542955 -0.84124994 -0.8482078 0.2722264 0.35750407 0.5981307 0.08952288 -1.2478305 -0.0012648093 -0.66033757 0.13812524 0.020803196 0.17865129 0.40105504 -0.31958827 -0.60263604 -0.06869608 0.44038966 -0.38716412 0.0030045467 0.971515 -0.68266493 0.19888309 -0.3084253 0.28308868 -0.17196725 0.9543909 0.09824313 0.0877285 0.6215378 0.6349896 -0.3149627 -0.14220038 0.7612129 -0.6922552 -0.22843058 -0.46056893 0.63761264 0.18460037 -0.5107378 0.7298277 0.6425627 -0.21456774 0.08493977 0.2796302 -0.19950946 -0.101370625 -0.194983 0.27653632
D009461 0.20719676 -0.025838926 -0.7440942 0.15898223 0.2880861 0.099904515 -0.10479963 0.13530707 -0.65250486 0.23017691 -0.08370958 -0.37805915 -0.30210635 0.83996034 -0.30942723 -0.5951905 0.0062433337 -0.17750712 -0.2250488 -0.64267266 0.057133343 -0.31166753 0.3130014 0.30998412 -0.156719 -0.19113639 -0.4383415 0.06566049 -0.6304946 -0.13873953 -0.28921637 -0.37600175 -0.5356542 -0.15407726 -0.13871321 -0.5210071 -0.36040848 -0.78081965 0.07079774 0.46710828 -0.03710813 0.44055834 -0.26035246 -0.06916629 -0.2963943 -0.40127838 -0.26379204 -0.15110002 -0.43014976 0.5635841
D054198 0.1007307 0.07427438 -0.13123724 -0.28649342 0.5766239 -0.22021352 0.019405453 0.3579213 -0.46749064 0.19583897 0.34741002 0.4668754 -0.70901734 -0.3842862 0.038965248 -0.27671313 0.60455906 -0.20333678 0.6970917 -0.4030205 -0.8280402 0.18044077 0.52661836 0.096646026 -0.16991062 -0.30111045 -0.14943288 0.7671561 -0.8310395 0.52278614 1.0238024 0.07657849 0.2376731 0.17985386 0.7487912 0.08876951 0.048759893 -0.64661366 1.1832081 0.4650037 0.41327295 -0.12675485 0.23443803 0.12236552 -0.12212306 -0.7240975 0.49421284 -0.47473073 0.47060978 0.038918074
D011618 0.21988913 0.16877615 -0.6230789 -0.7224304 0.35407844 0.19781864 0.64390147 0.06637697 -1.1567849 -0.09949708 -0.8020148 0.39797994 0.14818695 0.4480999 0.43037373 -0.035789724 -0.67265743 -0.34808832 0.44855183 -0.46650913 0.22666965 0.7975716 -0.28761572 0.22685817 -0.7731887 0.117105074 -0.5898908 0.82762235 -0.3503585 -0.59843415 1.0479923 0.3335789 -0.34263003 -0.08571581 0.3509218 -0.9166624 -0.059024245 -0.28511205 0.60660756 -0.14224364 -0.31320405 0.6139007 0.8124075 0.15585256 -0.4543391 0.30614987 -0.26068896 -0.67307526 -0.29101542 0.3773709
D005909 -0.009777142 0.60661703 -0.3095985 -0.21601179 -0.21418501 -0.15985316 -0.074740194 1.4050606 -0.024934169 0.312365 0.45312646 -0.23290154 -0.13165559 0.84600747 0.19528177 -0.10007945 -0.3944624 -0.36384156 0.75221956 -0.40082827 -0.9411788 -0.31043756 0.61329263 0.4341458 -0.19244075 -0.24713363 -0.008950571 0.42434353 -0.70246273 -0.29194587 0.6801478 0.7070443 -0.33663297 1.284784 0.6681897 -0.6083969 -0.039446563 -0.62840074 0.54971796 0.06251394 0.2560826 -0.06497027 -0.12485695 0.35581437 0.0012960851 -0.12671404 -0.049977455 0.48978788 0.4334372 1.1085279
D007022 -0.08545548 0.6912189 -0.4790855 -0.45505226 0.29469296 0.05486326 0.027565142 0.17126696 -0.034104533 0.30785385 -0.1480955 -0.076259695 0.025028393 0.12463324 -0.08906434 0.43719512 -0.014394196 -0.038426746 0.44327337 -0.19755657 0.5160731 0.3929754 0.7149005 -0.33313876 0.042897653 0.09287268 0.20994556 0.24143879 -0.24834478 0.08655393 -0.078023635 0.662161 -0.23159993 -0.09480249 -0.40978765 -0.23611899 0.17113735 -1.1592302 -0.50602114 0.32146195 -0.5639703 0.26854712 -0.46094215 -0.19874232 -0.577136 -0.5595762 0.027155003 -0.31894854 -0.004934678 0.47153008
D015746 -0.25360185 0.1941466 -0.3999047 -0.1825276 0.1409094 -0.31544974 0.31423438 0.2603013 -0.09940103 0.44906172 -0.52932817 -0.7520394 -0.3244506 -0.26180702 -0.1965185 -0.22049524 0.6866558 -0.26928723 0.24844271 0.10244597 0.06623269 0.10715668 0.41181064 0.6254355 0.089966595 0.09671018 0.19814096 -0.25659114 0.34370363 0.2947176 0.5257592 0.18000945 -0.6775744 0.118041374 -0.2227828 -0.4874921 0.6052387 -1.0203336 -0.2331506 0.43438485 -0.5112433 0.112973906 0.28635743 0.59127027 0.339042 -0.32262143 0.008452944 -0.25434774 -0.5569909 0.058727957
D005391 -0.10909332 0.12474502 -0.1370452 -0.24907722 -0.07842256 0.11848942 0.23403537 0.29355988 -0.072155796 0.5117767 -0.06706937 0.060993444 -0.019361362 0.32350722 -0.46096733 -0.1864157 -0.21790121 -0.010767148 0.48453927 -0.25002605 0.2432617 0.09172213 -0.10749034 -0.14932083 0.3617803 -0.24271888 0.024246717 -0.041515853 0.15258223 -0.16097388 0.24237068 0.4295027 0.18983041 -0.05157753 0.5698751 -0.23791805 0.07140501 -0.57128185 0.32195124 0.31850705 -0.31547192 0.16939941 0.14166333 -0.6321946 0.27013072 0.18926944 -0.29877442 0.05398473 -0.035501163 0.12533543
D014552 0.16661398 -0.18047251 0.07271163 0.01652264 -0.5454079 0.12308436 0.09614761 0.607361 -0.51444393 0.14950074 -0.82165724 -0.037163876 0.017598074 0.34459287 -0.77986115 -0.751134 0.041851975 0.29959047 1.0645169 -0.2952499 -0.27085695 0.7755914 0.4873063 0.53596145 -0.6798399 0.40146986 0.15227647 0.28593352 0.03265001 0.42066008 -0.009896535 0.06107505 0.9309886 -0.33888948 -0.10574724 0.24787824 0.5412885 -1.0943873 -0.3488087 -0.3193678 -0.32816398 -0.01451342 0.2745054 -0.3054567 -0.18492132 -0.07183282 0.49605814 -0.7249681 -0.22094661 -0.04308813
